tree
version=v4
num_class=1
num_tree_per_iteration=1
label_index=0
max_feature_idx=358
objective=binary sigmoid:1
feature_names=rn is_zero_loans5 is_zero_loans530 is_zero_loans3060 is_zero_loans6090 is_zero_loans90 is_zero_util is_zero_over2limit is_zero_maxover2limit pclose_flag fclose_flag pre_since_opened_0 pre_since_opened_1 pre_since_opened_2 pre_since_opened_3 pre_since_opened_4 pre_since_opened_5 pre_since_opened_6 pre_since_opened_7 pre_since_opened_8 pre_since_opened_9 pre_since_opened_10 pre_since_opened_11 pre_since_opened_12 pre_since_opened_13 pre_since_opened_14 pre_since_opened_15 pre_since_opened_16 pre_since_opened_17 pre_since_opened_18 pre_since_opened_19 pre_since_confirmed_0 pre_since_confirmed_1 pre_since_confirmed_2 pre_since_confirmed_3 pre_since_confirmed_4 pre_since_confirmed_5 pre_since_confirmed_6 pre_since_confirmed_7 pre_since_confirmed_8 pre_since_confirmed_9 pre_since_confirmed_10 pre_since_confirmed_11 pre_since_confirmed_12 pre_since_confirmed_13 pre_since_confirmed_14 pre_since_confirmed_16 pre_since_confirmed_17 pre_since_confirmed_infrequent_sklearn pre_pterm_0 pre_pterm_1 pre_pterm_2 pre_pterm_3 pre_pterm_4 pre_pterm_6 pre_pterm_7 pre_pterm_8 pre_pterm_9 pre_pterm_10 pre_pterm_11 pre_pterm_12 pre_pterm_13 pre_pterm_14 pre_pterm_15 pre_pterm_16 pre_pterm_17 pre_pterm_infrequent_sklearn pre_fterm_0 pre_fterm_1 pre_fterm_2 pre_fterm_3 pre_fterm_5 pre_fterm_6 pre_fterm_7 pre_fterm_8 pre_fterm_9 pre_fterm_10 pre_fterm_11 pre_fterm_12 pre_fterm_13 pre_fterm_14 pre_fterm_15 pre_fterm_16 pre_fterm_infrequent_sklearn pre_till_pclose_0 pre_till_pclose_1 pre_till_pclose_2 pre_till_pclose_3 pre_till_pclose_4 pre_till_pclose_5 pre_till_pclose_6 pre_till_pclose_7 pre_till_pclose_8 pre_till_pclose_9 pre_till_pclose_10 pre_till_pclose_11 pre_till_pclose_12 pre_till_pclose_13 pre_till_pclose_14 pre_till_pclose_15 pre_till_pclose_16 pre_till_fclose_0 pre_till_fclose_1 pre_till_fclose_2 pre_till_fclose_3 pre_till_fclose_4 pre_till_fclose_5 pre_till_fclose_6 pre_till_fclose_7 pre_till_fclose_8 pre_till_fclose_9 pre_till_fclose_10 pre_till_fclose_11 pre_till_fclose_12 pre_till_fclose_13 pre_till_fclose_14 pre_till_fclose_15 pre_loans_credit_limit_0 pre_loans_credit_limit_1 pre_loans_credit_limit_2 pre_loans_credit_limit_3 pre_loans_credit_limit_4 pre_loans_credit_limit_5 pre_loans_credit_limit_6 pre_loans_credit_limit_7 pre_loans_credit_limit_8 pre_loans_credit_limit_9 pre_loans_credit_limit_10 pre_loans_credit_limit_11 pre_loans_credit_limit_12 pre_loans_credit_limit_13 pre_loans_credit_limit_14 pre_loans_credit_limit_15 pre_loans_credit_limit_16 pre_loans_credit_limit_17 pre_loans_credit_limit_18 pre_loans_credit_limit_19 pre_loans_next_pay_summ_0 pre_loans_next_pay_summ_1 pre_loans_next_pay_summ_2 pre_loans_next_pay_summ_3 pre_loans_next_pay_summ_4 pre_loans_next_pay_summ_5 pre_loans_next_pay_summ_6 pre_loans_outstanding_1 pre_loans_outstanding_2 pre_loans_outstanding_3 pre_loans_outstanding_4 pre_loans_outstanding_5 pre_loans_max_overdue_sum_1 pre_loans_max_overdue_sum_2 pre_loans_max_overdue_sum_3 pre_loans_max_overdue_sum_infrequent_sklearn pre_loans_credit_cost_rate_0 pre_loans_credit_cost_rate_1 pre_loans_credit_cost_rate_2 pre_loans_credit_cost_rate_3 pre_loans_credit_cost_rate_4 pre_loans_credit_cost_rate_5 pre_loans_credit_cost_rate_6 pre_loans_credit_cost_rate_7 pre_loans_credit_cost_rate_8 pre_loans_credit_cost_rate_9 pre_loans_credit_cost_rate_10 pre_loans_credit_cost_rate_11 pre_loans_credit_cost_rate_13 pre_loans_credit_cost_rate_infrequent_sklearn pre_loans5_0 pre_loans5_2 pre_loans5_3 pre_loans5_5 pre_loans5_6 pre_loans5_infrequent_sklearn pre_loans530_0 pre_loans530_2 pre_loans530_3 pre_loans530_6 pre_loans530_13 pre_loans530_16 pre_loans530_18 pre_loans530_infrequent_sklearn pre_loans3060_5 pre_loans3060_8 pre_loans3060_infrequent_sklearn pre_loans6090_4 pre_loans6090_infrequent_sklearn pre_loans90_8 pre_loans90_14 pre_loans90_infrequent_sklearn pre_util_0 pre_util_1 pre_util_2 pre_util_3 pre_util_4 pre_util_5 pre_util_6 pre_util_7 pre_util_8 pre_util_9 pre_util_10 pre_util_11 pre_util_12 pre_util_13 pre_util_14 pre_util_15 pre_util_16 pre_util_17 pre_util_18 pre_util_19 pre_over2limit_2 pre_over2limit_5 pre_over2limit_6 pre_over2limit_15 pre_over2limit_17 pre_over2limit_infrequent_sklearn pre_maxover2limit_0 pre_maxover2limit_1 pre_maxover2limit_2 pre_maxover2limit_3 pre_maxover2limit_4 pre_maxover2limit_5 pre_maxover2limit_7 pre_maxover2limit_8 pre_maxover2limit_9 pre_maxover2limit_10 pre_maxover2limit_11 pre_maxover2limit_12 pre_maxover2limit_13 pre_maxover2limit_14 pre_maxover2limit_15 pre_maxover2limit_16 pre_maxover2limit_17 pre_maxover2limit_18 pre_maxover2limit_19 pre_maxover2limit_infrequent_sklearn enc_paym_0_0 enc_paym_0_1 enc_paym_0_2 enc_paym_0_3 enc_paym_1_0 enc_paym_1_1 enc_paym_1_2 enc_paym_1_3 enc_paym_2_0 enc_paym_2_1 enc_paym_2_2 enc_paym_2_3 enc_paym_3_0 enc_paym_3_1 enc_paym_3_2 enc_paym_3_3 enc_paym_4_0 enc_paym_4_1 enc_paym_4_2 enc_paym_4_3 enc_paym_5_0 enc_paym_5_1 enc_paym_5_2 enc_paym_5_3 enc_paym_6_0 enc_paym_6_1 enc_paym_6_2 enc_paym_6_3 enc_paym_7_0 enc_paym_7_1 enc_paym_7_2 enc_paym_7_3 enc_paym_8_0 enc_paym_8_1 enc_paym_8_2 enc_paym_8_3 enc_paym_9_0 enc_paym_9_1 enc_paym_9_2 enc_paym_9_3 enc_paym_10_0 enc_paym_10_1 enc_paym_10_2 enc_paym_10_3 enc_paym_11_1 enc_paym_11_2 enc_paym_11_3 enc_paym_11_4 enc_paym_12_0 enc_paym_12_1 enc_paym_12_2 enc_paym_12_3 enc_paym_13_0 enc_paym_13_1 enc_paym_13_2 enc_paym_13_3 enc_paym_14_0 enc_paym_14_1 enc_paym_14_2 enc_paym_14_3 enc_paym_15_0 enc_paym_15_1 enc_paym_15_2 enc_paym_15_3 enc_paym_16_0 enc_paym_16_1 enc_paym_16_2 enc_paym_16_3 enc_paym_17_0 enc_paym_17_1 enc_paym_17_2 enc_paym_17_3 enc_paym_18_0 enc_paym_18_1 enc_paym_18_2 enc_paym_18_3 enc_paym_19_0 enc_paym_19_1 enc_paym_19_2 enc_paym_19_3 enc_paym_20_1 enc_paym_20_2 enc_paym_20_3 enc_paym_20_4 enc_paym_21_0 enc_paym_21_1 enc_paym_21_2 enc_paym_21_3 enc_paym_22_0 enc_paym_22_1 enc_paym_22_2 enc_paym_22_3 enc_paym_23_0 enc_paym_23_1 enc_paym_23_2 enc_paym_23_3 enc_paym_24_1 enc_paym_24_2 enc_paym_24_3 enc_paym_24_4 enc_loans_account_holder_type_1 enc_loans_account_holder_type_3 enc_loans_account_holder_type_4 enc_loans_account_holder_type_6 enc_loans_account_holder_type_infrequent_sklearn enc_loans_credit_status_1 enc_loans_credit_status_2 enc_loans_credit_status_3 enc_loans_credit_status_4 enc_loans_credit_status_5 enc_loans_credit_status_6 enc_loans_credit_status_infrequent_sklearn enc_loans_credit_type_0 enc_loans_credit_type_1 enc_loans_credit_type_2 enc_loans_credit_type_3 enc_loans_credit_type_4 enc_loans_credit_type_5 enc_loans_credit_type_6 enc_loans_credit_type_7 enc_loans_account_cur_0 enc_loans_account_cur_1 enc_loans_account_cur_2 enc_loans_account_cur_infrequent_sklearn
feature_infos=[1:45] [0:1] [0:1] [0:1] [0:1] [0:1] [0:1] [0:1] [0:1] [0:1] [0:1] [0:10] [0:21] [0:22] [0:18] [0:19] [0:15] [0:12] [0:25] [0:15] [0:19] [0:13] [0:19] [0:36] [0:11] [0:11] [0:17] [0:18] [0:22] [0:18] [0:20] [0:22] [0:21] [0:16] [0:21] [0:16] [0:19] [0:15] [0:12] [0:20] [0:30] [0:18] [0:27] [0:13] [0:19] [0:16] [0:15] [0:21] [0:3] [0:11] [0:11] [0:11] [0:34] [0:35] [0:13] [0:13] [0:13] [0:10] [0:7] [0:11] [0:10] [0:12] [0:18] [0:11] [0:12] [0:8] [0:2] [0:12] [0:12] [0:9] [0:28] [0:15] [0:13] [0:9] [0:37] [0:12] [0:11] [0:12] [0:9] [0:11] [0:8] [0:10] [0:11] [0:1] [0:12] [0:22] [0:25] [0:19] [0:15] [0:24] [0:14] [0:25] [0:9] [0:16] [0:19] [0:26] [0:9] [0:13] [0:13] [0:21] [0:25] [0:28] [0:17] [0:29] [0:11] [0:10] [0:17] [0:21] [0:16] [0:11] [0:17] [0:16] [0:26] [0:19] [0:13] [0:19] [0:23] [0:10] [0:16] [0:23] [0:14] [0:33] [0:20] [0:17] [0:10] [0:10] [0:5] [0:11] [0:9] [0:20] [0:18] [0:16] [0:11] [0:9] [0:11] [0:30] [0:13] [0:9] [0:10] [0:40] [0:12] [0:11] [0:16] [0:11] [0:16] [0:7] [0:44] [0:14] [0:7] [0:15] [0:43] [0:10] none [0:8] [0:9] [0:29] [0:12] [0:35] [0:13] [0:39] [0:12] [0:16] [0:15] [0:12] [0:18] [0:23] [0:1] [0:4] [0:3] [0:4] [0:3] [0:45] [0:3] [0:5] [0:2] [0:3] [0:3] [0:7] [0:44] [0:3] [0:2] [0:45] [0:5] [0:3] [0:45] [0:3] [0:45] [0:3] [0:3] [0:4] [0:4] [0:4] [0:5] [0:4] [0:4] [0:12] [0:4] [0:3] [0:15] [0:4] [0:4] [0:5] [0:4] [0:4] [0:4] [0:43] [0:5] [0:5] [0:3] [0:45] [0:15] [0:5] [0:2] [0:3] [0:7] [0:7] [0:2] [0:2] [0:12] [0:15] [0:2] [0:2] [0:2] [0:7] [0:2] [0:6] [0:2] [0:2] [0:2] [0:3] [0:4] [0:43] [0:2] [0:2] [0:2] [0:41] [0:17] [0:4] [0:29] [0:38] [0:14] [0:6] [0:39] [0:34] [0:13] [0:5] [0:39] [0:32] [0:14] [0:5] [0:40] [0:30] [0:16] [0:5] [0:42] [0:31] [0:13] [0:5] [0:42] [0:28] [0:10] [0:4] [0:42] [0:26] [0:11] [0:4] [0:42] [0:26] [0:11] [0:4] [0:42] [0:27] [0:10] [0:5] [0:42] [0:25] [0:9] [0:3] [0:42] [0:24] [0:10] [0:4] [0:42] [0:24] [0:10] [0:4] [0:42] [0:24] [0:10] [0:3] [0:42] [0:23] [0:9] [0:4] [0:42] [0:22] [0:8] [0:3] [0:42] [0:22] [0:10] [0:5] [0:42] [0:21] [0:11] [0:4] [0:42] [0:21] [0:10] [0:3] [0:42] [0:20] [0:9] [0:3] [0:42] [0:20] [0:11] [0:3] [0:42] [0:18] [0:10] [0:3] [0:42] [0:19] [0:10] [0:3] [0:42] [0:19] [0:7] [0:3] [0:42] [0:17] [0:7] [0:4] [0:45] [0:45] [0:8] [0:28] [0:14] [0:4] [0:14] [0:26] [0:44] [0:8] [0:11] [0:8] [0:1] [0:15] [0:28] [0:13] [0:24] [0:35] [0:30] [0:2] [0:14] [0:4] [0:45] [0:7] [0:2]
tree_sizes=3642 3641 3629 3646 3655 3641 3650 3636 3640 3639 3640 3648 3657 3676 3656 3625 3654 3668 3654 3638 3663 3668 3650 3667 3669 3665 3680 3662 3658 3663 3667 3664 3664 3663 3668 3685 3673 3668 3671 3677 3621 3673 3655 3664 3679 3686 3672 3669 3660 3671 3676 3689 3671 3679 3655 3677 3663 3677 3658 3689 3674 3668 3679 3672 3676 3666 3667 3663 3683 3670 3644 3697 3642 3652 3678 3640 3647 3642 3684 3642 3682 3627 3658 3636 3689 3648 3624 3616 3658 3661 3687 3635 3620 3664 3658 3653 3672 3637 3610 3609 3635 3630 3641 3623 3632 3598 3599 3642 3585 3590 3633 3650 3609 3641 3616 3619 3579 3640 3593 3618 3606 3566 3563 3645 3589 3628 3614 3590 3598 3598 3608 3494 3523 3535 3576 3580 3534 3616 3526 3529 3534 3578 3575 3475 3560 3535 3482 3483 3551 3571 3492 3500 3573 3556 3471 3471 3582 3564 3595 3545 3493 3523 3501 3499 3486 3499 3549 3544 3568 3508 3580 3582 3572 3605 3513 3566 3464 3527 3494 3521 3503 3450 3544 3491 3489 3557 3433 3442 3466 3434 3571 3461 3506 3468 3460 3592 3549 3548 3608 3496 3656 3442 3593 3457 3452 3470 3433 3506 3618 3482 3475 3468 3473 3541 3459 3520 3466 3534 3516 3472 3495 3505 3548 3493 3538 3551 3483 3470 3477 3441 3467 3498 3527 3438 3447 3493 3571 3559 3518 3555 3563 3496 3583 3626 3444 3521 3470 3461 3464 3471 3500 3508 3550 3562 3502 3482 3420 3474 3533 3489 3459 3528 3450 3507 3526 3488 3561 3566 3568 3539 3577 3501 3626 3583 3472 3557 3504 3509 3574 3522 3444 3475 3450 3512 3445 3553 3477 3538 3497 3583 3563 3620 3520 3631 3562 3534 3432 3451 3528 3473 3502 3435 3421 3495 3447 3477 3498 3452 3527 3430 3480 3520 3523 3527 3519 3543 3474 3466 3531 3579 3540 3428 3545 3454 3469 3598 3521 3515 3474 3519 3521 3446 3552 3540 3455 3460 3526 3518 3529 3542 3453 3519 3444 3508 3428 3399 3471 3514 3568 3547 3543 3461 3450 3530 3566 3553 3530 3460 3440 3461 3491 3520 3524 3511 3481 3529 3450 3462 3436 3540 3496 3435 3469 3481 3529 3503 3537 3467 3559 3506 3495 3536 3477 3477 3483 3441 3466 3546 3482 3429 3467 3405 3421 3469 3515 3458 3539 3506 3516 3502 3449 3513 3454 3491 3481 3485 3473 3470 3405 3488 3526 3520 3496 3529 3472 3430 3509 3587 3507 3534 3529 3464 3565 3520 3460 3412 3430 3439 3440 3429 3562 3495 3509 3425 3484 3563 3541 3496 3522 3530 3521 3520 3454 3538 3530 3537 3535 3556 3539 3474 3526 3471 3462 3538 3476 3477 3419 3442 3570 3481 3462 3532 3488 3497 3462 3502 3457 3496 3486 3472 3432 3443 3452 3475 3504 3415 3516 3490 3460 3407 3513 3515 3513 3490 3573 3538 3512 3534 3498 3546 3511 3474 3506 3496 3450 3450 3559 3457 3456 3450 3519 3510 3446 3411 3473 3621 3558 3520 3490 3514 3477 3546 3484 3459 3437 3500 3469 3518 3474 3454 3453 3456 3496 3405 3528 3457 3437 3445 3388 3451 3430 3565 3455 3490 3444 3466 3459 3586 3455 3523 3492 3467 3508 3634 3546 3482 3474 3541 3476 3447 3481 3498 3471 3441 3495 3553 3470 3393 3491 3536 3541 3493 3449 3455 3469 3486 3500 3423 3514 3473 3513 3587 3507 3561 3544 3479 3520 3434 3530 3511 3545 3420 3437 3477 3413 3411 3540 3469 3431 3481 3509 3476 3534 3453 3427 3433 3555 3547 3524 3514 3504 3552 3545 3530 3476 3504 3452 3488 3457 3545 3568 3537 3483 3450 3423 3511 3468 3485 3466 3536 3518 3479 3431 3516 3519 3563 3448 3434 3436 3504 3448 3414 3454 3464 3530 3481 3437 3442 3548 3448 3531 3516 3419 3487 3447 3526 3492 3525 3464 3482 3488 3478 3418 3576 3449 3496 3571 3545 3542 3565 3503 3479 3437 3498 3461 3493 3511 3604 3516 3453 3495 3414 3445 3466 3481 3521 3468 3450 3533 3528 3473 3540 3486 3537 3514 3523 3520 3550 3485 3557 3523 3471 3528 3535 3450 3474 3433 3425 3452 3516 3475 3511 3493 3438 3520 3448 3531 3465 3436 3524 3472 3481 3445 3489 3476 3440 3438 3411 3451 3437 3507 3484 3468 3504 3465 3495 3509 3520 3416 3514 3503 3484 3436 3393 3472 3471 3524 3472 3501 3433 3571 3450 3479 3540 3543 3572 3533 3468 3478 3635 3509 3476 3420 3439 3516 3426 3427 3504 3551 3478 3531 3532 3525 3545 3554 3481 3437 3440 3617 3543 3547 3553 3522 3459 3432 3451 3464 3462 3549 3529 3507 3509 3505 3470 3514 3486 3461 3420 3432 3521 3425 3444 3557 3526 3503 3525 3462 3489 3474 3472 3505 3445 3444 3410 3479 3441 3414 3451 3547 3498 3509 3467 3407 3416 3523 3478 3443 3543 3511 3489 3492 3506 3447 3513 3472 3447 3393 3477 3529 3500 3472 3550 3530 3462 3509 3479 3554 3539 3434 3500 3484 3483 3458 3446 3512 3475 3476 3497 3486 3534 3507 3484 3444 3448 3398 3469 3478 3519 3404 3535 3419 3499 3492 3575 3475 3392 3409 3457 3530 3463 3525 3487 3488 3467 3466 3549 3558 3601 3505 3448 3459 3512 3479 3466 3507 3523 3488 3439 3540 3518 3483 3502 3490 3449 3418 3493 3494 3433 3413 3499 3471 3479 3494 3460 3509 3474 3413 3520 3415 3477 3529 3483 3434 3449 3486 3566 3493 3564 3442 3516 3431 3512 3410 3412 3501 3429 3492 3459 3424 3439 3409 3422 3509 3457 3529 3565 3488 3487 3400 3479 3567 3512 3633 3468 3530 3509 3511 3526 3515 3518 3457 3474 3551 3517 3464 3450 3452 3462 3436 3439 3585 3549 3508 3503 3569 3491 3476 3456 3435 3492 3537 3461 3426 3396 3454 3444 3427 3515 3491 3474 3468 3492 3480 3532 3530 3510 3541 3464 3478 3407 3425 3512 3422 3453 3442 3448 3447 3548 3529 3459

Tree=0
num_leaves=31
num_cat=0
split_feature=307 3 192 195 347 2 251 2 5 192 159 195 207 6 195 347 159 159 192 236 148 2 327 2 311 247 3 236 242 3
split_gain=48812.8 50491.5 40350.3 22279.8 14288.7 14257.1 10799.5 10705.7 6538.16 6251.03 5616.37 5323.66 4514.73 4195.18 3998.41 3576.6 3502.98 3148.51 3147.75 2886.87 2742.12 2634.33 2523.47 2187.27 2055.98 2032.53 1979.36 1955.61 1576.38 1552.84
threshold=1.0000000180025095e-35 0.91485507246376818 1.0000000180025095e-35 1.0000000180025095e-35 1.0000000180025095e-35 0.79238505747126442 1.0000000180025095e-35 0.9883720930232559 0.74537037037037046 1.0000000180025095e-35 1.0000000180025095e-35 1.0000000180025095e-35 1.0000000180025095e-35 0.44097222222222227 1.0000000180025095e-35 1.0000000180025095e-35 1.0000000180025095e-35 1.0000000180025095e-35 1.5000000000000002 1.0000000180025095e-35 1.0000000180025095e-35 0.71651785714285732 1.5000000000000002 0.81980519480519487 1.5000000000000002 3.5000000000000004 0.94028520499108748 1.0000000180025095e-35 1.0000000180025095e-35 0.85092592592592597
decision_type=2 2 2 2 2 2 2 2 2 2 2 2 2 2 2 2 2 2 2 2 2 2 2 2 2 2 2 2 2 2
left_child=6 8 3 5 11 22 28 27 -2 13 12 18 24 -9 19 -11 26 21 23 25 -6 -5 -3 -4 -7 -10 -15 29 -1 -8
right_child=1 2 4 17 20 10 7 9 14 15 -12 -13 -14 16 -16 -17 -18 -19 -20 -21 -22 -23 -24 -25 -26 -27 -28 -29 -30 -31
leaf_value=0.064100413108693785 0.092161121648996189 -0.013827033151355892 0.028528021909093385 0.043179162250461381 -0.087139172523755123 -0.097701704477532139 0.085677875626909483 0.020503143228832923 0.042647840663656733 0.068402011288713357 0.020486790873085407 0.072967547178704295 -0.066482489047932442 0.060220146742324003 0.069532625347225707 -0.05067838993364706 0.093155479665036456 0.087023286182044371 0.055345006832175941 0.041157536524378667 -0.023177317911440894 -0.022908419825588434 -0.058809017817361538 -0.015368893028722023 -0.12925822050984243 -0.01414322389851772 -0.044601276687477605 0.086592497693907755 0.10359155640932134 0.038472219540904733
leaf_weight=17373.66428399086 20205.241916179657 23237.950981616974 18924.897015452385 8170.8804681301117 13123.071237683296 34411.215802192688 8893.9612877368927 27378.570636749268 8095.8498570919037 19069.362949967384 3617.511731505394 21027.106047511101 22681.627714157104 1906.2412114143372 18633.844419121742 2906.7260274887085 2134.3275550603867 4158.5544661283493 14580.806624770164 27902.854788541794 13699.791964530945 23037.042552351952 26918.448559641838 28362.65656876564 51613.976508498192 28440.991982340813 32773.041984319687 20361.816958546638 24169.853008508682 32188.12522649765
leaf_count=48802 46221 98922 65668 26128 73740 200114 21417 99084 25968 52041 13093 55600 118745 5492 50461 14364 4843 9910 43329 90273 60699 101954 137088 121550 330418 121238 158252 48686 50157 105743
internal_value=-4.95203e-08 -0.0193537 -0.0396682 -0.0666412 0.00897025 -0.0822974 0.0420358 0.0293598 0.0411433 0.00661868 -0.102092 0.0294981 -0.106171 -0.00914059 0.0287347 0.0526515 -0.0311869 0.00528638 0.0147242 0.0169373 -0.0544706 -0.00560532 -0.0379684 0.00219904 -0.116635 -0.00155943 -0.0388395 0.0612517 0.0870762 0.0486919
internal_weight=0 410844 307566 197847 109718 162481 189156 147612 103279 86168.3 112324 82895.5 108707 64192.2 83073.5 21976.1 36813.6 35366.5 61868.4 64439.7 26822.9 31207.9 50156.4 47287.6 86025.2 36536.8 34679.3 61443.9 41543.5 41082.1
internal_count=2400000 1791119 1456958 1036372 420586 898380 608881 509922 334161 334076 662370 286147 649277 267671 287940 66405 168587 137992 230547 237479 134439 128082 236010 187218 530532 147206 163744 175846 98959 127160
is_linear=0
shrinkage=1


Tree=1
num_leaves=31
num_cat=0
split_feature=299 3 192 195 347 2 247 2 159 3 6 195 159 207 159 119 159 192 307 347 195 94 319 192 2 192 207 195 347 2
split_gain=40158.8 41379.9 34863.4 19659.7 12472.7 12402.5 8059.09 7281.91 5134.88 5068.54 4837.01 4523.88 4187.33 3934.68 2972.19 2920.27 2753.22 2745.52 2381.06 2375.26 2207.87 2162.33 2031.09 1967.58 1880.44 1784.19 1707.36 1629.43 1589.07 1574.07
threshold=1.0000000180025095e-35 0.90399385560675893 1.0000000180025095e-35 1.0000000180025095e-35 1.0000000180025095e-35 0.79238505747126442 1.0000000180025095e-35 0.97182539682539693 1.0000000180025095e-35 0.74537037037037046 0.47722567287784684 1.0000000180025095e-35 1.0000000180025095e-35 1.0000000180025095e-35 1.0000000180025095e-35 1.0000000180025095e-35 1.0000000180025095e-35 1.5000000000000002 1.5000000000000002 1.0000000180025095e-35 1.0000000180025095e-35 1.0000000180025095e-35 1.5000000000000002 1.0000000180025095e-35 0.9076704545454547 1.0000000180025095e-35 1.0000000180025095e-35 1.0000000180025095e-35 1.0000000180025095e-35 0.71198156682027658
decision_type=2 2 2 2 2 2 2 2 2 2 2 2 2 2 2 2 2 2 2 2 2 2 2 2 2 2 2 2 2 2
left_child=6 9 3 5 11 18 -1 -8 13 -2 27 17 25 22 20 -6 19 24 -3 -5 23 -17 -7 29 -4 -12 -20 -9 -15 -11
right_child=1 2 4 16 15 8 7 10 -10 14 12 -13 -14 28 -16 21 -18 -19 26 -21 -22 -23 -24 -25 -26 -27 -28 -29 -30 -31
leaf_value=0.08425750285118605 0.069890965343744782 -0.0051790724176003153 0.020421695674104533 0.010016189541353946 0.02436670650343746 -0.087890881879556196 0.058974317833664462 0.027287024368573505 0.021242295167230307 0.014779368844304936 -0.030450707916513754 0.067403838764929197 0.098800612921843875 -0.043430326555008864 0.091912169127468454 -0.098426998883615502 0.080360732022744102 0.052113257420787311 -0.06154965433279691 -0.058865440181330234 0.053826002173301184 -0.036771680621677641 -0.11780308411760763 0.035618151683081634 -0.018649740436989769 0.025370880545806419 -0.0093185926511061886 0.080750751453735198 -0.1034917332326703 -0.030534219093636857
leaf_weight=34235.453019171953 36067.840964198112 20154.260868176818 29612.784253627062 27257.883339136839 4677.858597099781 43269.79658408463 53265.17222301662 34598.371397912502 3994.1459156274796 14973.81253772974 32702.741835638881 22442.115972951055 3167.7380930781364 18126.38609367609 5699.7280739992857 9669.2499115467072 4540.5276733487844 15624.821330472827 25328.858971059322 6132.418991714716 12320.613909050822 13816.135554686189 47752.358549982309 15158.497082918882 21091.365272209048 6941.0808756053448 8312.3107105046511 6825.1036556214094 5819.2682830095291 15707.645776495337
leaf_count=78085 93269 82705 106315 104049 16954 251450 149153 118694 14225 55130 151390 58760 6395 89295 12594 57441 10696 45822 132575 31331 35408 66043 307635 50079 92068 23847 35460 16612 35184 71336
internal_value=0 -0.0164072 -0.0335886 -0.057891 0.0101986 -0.0722045 0.0408438 0.0300345 -0.0902224 0.0399233 0.0117347 0.0285942 -0.0118367 -0.0940948 0.0229978 -0.0477848 0.00730047 0.0154632 -0.03236 -0.00263452 0.0162442 -0.062156 -0.103584 0.00614312 0.00416918 -0.0206771 -0.048644 0.0360959 -0.0580264 -0.00841933
internal_weight=0 427551 327623 210688 116934 172757 171736 137500 118962 99928.1 84235 88771.1 42811.6 114968 63860.3 28163.2 37930.8 66329 53795.4 33390.3 58160.6 23485.4 91022.2 45840 50704.1 39643.8 33641.2 41423.5 23945.7 30681.5
internal_count=2400000 1855824 1538008 1094605 443403 948529 544176 466091 697789 317816 316938 302965 181632 683564 224547 140438 146076 244205 250740 135380 211953 123484 559085 176545 198383 175237 168035 135306 124479 126466
is_linear=0
shrinkage=0.1


Tree=2
num_leaves=31
num_cat=0
split_feature=315 3 192 195 23 2 347 2 3 263 159 195 207 195 192 159 159 1 347 236 5 195 94 6 94 195 2 1 5 192
split_gain=33657.5 35237.7 24159.2 12337.3 8706.6 9055.89 8620.04 8063.99 6873.28 4626.76 4231.15 4113.05 3665.06 3302.66 3233.57 2876.52 2841.68 2747.62 2507.57 2502.2 2198.43 2155.35 2083.89 1967.45 1908.22 1870.99 1938.39 1712.68 1686.57 1679.92
threshold=1.0000000180025095e-35 0.9883720930232559 1.0000000180025095e-35 1.0000000180025095e-35 1.0000000180025095e-35 0.73431372549019625 1.0000000180025095e-35 0.70710784313725505 0.79238505747126442 1.0000000180025095e-35 1.0000000180025095e-35 1.0000000180025095e-35 1.0000000180025095e-35 1.0000000180025095e-35 1.0000000180025095e-35 1.0000000180025095e-35 1.0000000180025095e-35 0.84495192307692324 1.0000000180025095e-35 1.0000000180025095e-35 0.85239651416122009 1.0000000180025095e-35 1.5000000000000002 0.30384615384615393 1.0000000180025095e-35 1.5000000000000002 0.83558558558558571 0.82480818414322254 0.63397129186602885 1.5000000000000002
decision_type=2 2 2 2 2 2 2 2 2 2 2 2 2 2 2 2 2 2 2 2 2 2 2 2 2 2 2 2 2 2
left_child=4 8 3 7 5 -1 13 -3 28 -7 19 14 16 22 17 23 20 -11 -16 24 -9 29 -4 -6 -10 26 -5 -22 -2 -8
right_child=1 2 6 25 15 9 21 12 10 11 -12 -13 -14 -15 18 -17 -18 -19 -20 -21 27 -23 -24 -25 -26 -27 -28 -29 -30 -31
leaf_value=0.059175422672490985 0.089132072911036364 -0.025004750059363597 -0.0033174199230803936 0.020746688135432262 0.078124754392904297 0.034342036604839803 -0.084209535729764418 0.049049031886726352 -0.034797258627897676 0.023837058088213913 0.069009623935551684 0.073975153961673826 -0.050071696394983468 0.05903209831028855 0.042259563276812344 0.11847592604955844 0.01916906985474557 -0.041062835106609116 -0.069555674959148328 0.020768980153205344 -0.063200540956329626 0.011025820022054385 0.043347140904965137 0.039995459315737274 0.0079137739988118117 0.057144696882318248 -0.036506669302661422 -0.10435069543966893 0.045023630735676376 -0.013485313930165216
leaf_weight=39843.76599355042 11546.340854421258 28127.47922411561 38932.404873535037 10255.802631825209 22436.640247702599 31851.643860310316 13345.221912786365 1018.5572814047337 23774.854473263025 7738.2385687828064 10081.370406001806 5172.9862957894802 23890.696599379182 16946.2703910321 11802.328980222344 8208.4996897727251 2157.9753487110138 41549.690357968211 2416.2351416349411 32796.34421557188 11712.779308229685 4501.7793250381947 12688.648792117834 34100.783648431301 18678.52977886796 4625.1034796386957 13966.296476170421 74107.418345212936 34784.673109948635 4488.0538589209318
leaf_count=107962 23940 129053 156367 36657 52194 102660 77319 3506 111539 27388 25730 12860 122988 45101 36204 12733 7760 200418 12920 116917 65392 17828 39669 107606 72042 13342 65707 472307 104014 19877
internal_value=0 -0.017163 -0.0384557 -0.0607225 0.0328223 0.0188303 0.00315232 -0.0729118 0.0250084 0.00284021 0.00817259 -0.0117695 -0.0848486 0.0207276 -0.0187539 0.0631583 -0.0941842 -0.0308735 0.0232582 2.212e-05 -0.0970011 -0.0508027 0.0081529 0.0551269 -0.0160054 -0.00113664 -0.0122652 -0.0987345 0.0560161 -0.0664106
internal_weight=0 392427 260764 169862 205121 140375 90902.4 141015 131662 100531 85331.1 68679.5 112887 68567.3 63506.5 64745.9 88996.7 49287.9 14218.6 75249.7 86838.8 22335.1 51621.1 56537.4 42453.4 28847.2 24222.1 85820.2 46331 17833.3
internal_count=2400000 1727055 1272873 916712 672945 500412 356161 801006 454182 392450 326228 289790 671953 241137 276930 172533 548965 227806 49124 300498 541205 115024 196036 159800 183581 115706 102364 537699 127954 97196
is_linear=0
shrinkage=0.1


Tree=3
num_leaves=31
num_cat=0
split_feature=295 236 3 192 23 5 6 195 347 2 159 2 195 159 6 119 344 159 192 236 4 247 5 267 192 94 119 3 271 94
split_gain=28120.5 22160.4 13319.6 12798.6 12466.5 11452.9 7255.66 6602.01 6333.45 5635.06 4035.97 3517.04 3444.61 3415.99 3431.16 2709.26 2524.86 2156.73 2045.72 2013.38 1995.66 1888.9 1830.01 1823.88 2078.92 1735.53 1728.71 1618.29 1570.46 1745.2
threshold=1.5000000000000002 1.0000000180025095e-35 0.97530487804878063 1.0000000180025095e-35 1.0000000180025095e-35 0.91779279279279291 0.46410256410256417 1.0000000180025095e-35 1.0000000180025095e-35 0.79238505747126442 1.0000000180025095e-35 0.87026647966339421 1.0000000180025095e-35 1.0000000180025095e-35 0.56385869565217395 1.0000000180025095e-35 1.0000000180025095e-35 1.0000000180025095e-35 1.0000000180025095e-35 1.0000000180025095e-35 0.90161290322580656 2.5000000000000004 0.65108695652173931 1.0000000180025095e-35 1.0000000180025095e-35 1.5000000000000002 1.0000000180025095e-35 0.92052631578947375 1.0000000180025095e-35 1.0000000180025095e-35
decision_type=2 2 2 2 2 2 2 2 2 2 2 2 2 2 2 2 2 2 2 2 2 2 2 2 2 2 2 2 2 2
left_child=2 3 21 5 6 22 15 11 17 -8 23 -7 16 14 26 19 18 25 20 28 -3 -1 -2 -11 -25 27 -6 -5 -4 -30
right_child=1 12 4 8 13 7 9 -9 -10 10 -12 -13 -14 -15 -16 -17 -18 -19 -20 -21 -22 -23 -24 24 -26 -27 -28 -29 29 -31
leaf_value=0.086423869323296695 0.072157537109324627 0.032168717322077177 0.042198138472936075 0.033933485291394387 0.061471050429707477 -0.057070705966947945 0.015613910392601347 -0.016906061344167399 -0.054356324978547144 -0.0084832588308832637 0.073111893700111591 -0.095314764473346913 0.050043852216165287 0.10791668131404641 0.0047189702727474768 -0.042698713609186902 0.066918767729588144 0.078426346473288583 0.023219888212439338 0.081658210883018112 -0.024809329916799815 0.049112762215518538 -0.0023132925681247861 -0.059716499996987006 -0.0061766122950640597 0.036375441073331592 -0.0062689504468344181 -0.016312581553075967 -0.011667325144446171 0.042602660935194672
leaf_weight=26401.536538764834 4154.9337114691734 7707.8674971610308 23018.149827539921 8229.1429158449173 39004.809587851167 41579.706702172756 29981.356691539288 20570.220289066434 19540.793203383684 12938.972735539079 3197.413838788867 57025.152168944478 26090.974168613553 8145.1317007690668 19876.188953757286 5639.750639423728 6490.8466226458549 4473.4360163956881 25757.249518871307 6653.1431099921465 30357.797587051988 27914.676883965731 16031.788605436683 42233.499387398362 8756.0386441349983 13745.075530663133 4170.0873531550169 28994.749083504081 17680.002167373896 8912.5608479231596
leaf_count=54878 9504 24613 69328 26662 102447 224015 107458 88442 102625 52893 7669 363703 74866 13219 76979 27737 17447 10363 90014 15173 142963 80644 64434 230624 35565 43192 16912 122123 75643 27865
internal_value=0 -0.0208062 0.0227055 -0.0387154 0.0121957 -0.0566393 -0.00337569 -0.0684378 -0.00540232 -0.0204309 -0.0365301 -0.079188 0.0190128 0.0469732 0.0391004 0.0233786 0.00749833 0.0118516 0.00145521 0.030002 -0.0132719 0.0672486 0.0130147 -0.0420139 -0.0505225 0.00600851 0.0549283 -0.00520461 0.0230745 0.00652139
internal_weight=0 310750 284523 214345 230207 139362 159011 119175 74983.2 97107.3 67125.9 98604.9 96404.7 71196.2 63051.1 61903.6 70313.8 55442.4 63822.9 56263.9 38065.7 54316.2 20186.7 63928.5 50989.5 50969 43174.9 37223.9 49610.7 26592.6
internal_count=2400000 1404966 995034 1055063 859512 750098 649955 676160 304965 434209 326751 587718 349903 209557 196338 215746 275037 202340 257590 188009 167576 135522 73938 319082 266189 191977 119359 148785 172836 103508
is_linear=0
shrinkage=0.1


Tree=4
num_leaves=31
num_cat=0
split_feature=119 159 6 3 94 2 192 3 347 192 259 2 243 195 94 243 240 5 149 121 311 5 236 323 192 192 255 327 94 2
split_gain=24840.6 16253.7 18282.5 18485.1 9147.34 7901.77 6777.12 6600.8 5697.68 5614.15 4477.47 4717.11 4117.38 2887.69 2866.4 2750.5 2643.25 1811.43 1753.49 1736.73 1727.57 1631.45 1597.06 1511.15 1466.77 1439.6 1389.11 1318.86 1282.91 1366.9
threshold=1.0000000180025095e-35 1.0000000180025095e-35 0.58477011494252884 0.87689393939393956 1.0000000180025095e-35 0.70710784313725505 1.0000000180025095e-35 0.9883720930232559 1.0000000180025095e-35 1.0000000180025095e-35 1.0000000180025095e-35 0.69337606837606847 1.5000000000000002 1.0000000180025095e-35 1.0000000180025095e-35 2.5000000000000004 1.0000000180025095e-35 0.55777777777777793 1.0000000180025095e-35 1.0000000180025095e-35 1.0000000180025095e-35 0.84412955465587058 1.0000000180025095e-35 1.0000000180025095e-35 1.0000000180025095e-35 1.0000000180025095e-35 8.5000000000000018 1.0000000180025095e-35 1.0000000180025095e-35 0.4919354838709678
decision_type=2 2 2 2 2 2 2 2 2 2 2 2 2 2 2 2 2 2 2 2 2 2 2 2 2 2 2 2 2 2
left_child=1 2 9 15 7 28 12 21 25 10 -1 -12 19 17 18 -4 24 -13 27 -7 -19 -2 -9 -11 -10 -6 -3 -14 29 -5
right_child=4 26 3 5 8 6 -8 22 16 23 11 13 14 -15 -16 -17 -18 20 -20 -21 -22 -23 -24 -25 -26 -27 -28 -29 -30 -31
leaf_value=0.051775597397779698 0.035042427536983993 0.087225701865990435 0.076583915037010675 0.0278242160047746 -0.0092674305319417529 -0.01478348145190227 -0.00013246229457589812 -0.099401637570832466 -0.091617428903915943 0.068994472213838864 0.041900376320666996 0.090959304415413264 -0.053976976529235471 0.034036866855150935 -0.027405025707205172 0.025568865149374478 -0.0086398183310974538 -0.0032730414782796732 -0.031552488773023961 0.096734819258475546 -0.039136870909360827 -0.035004546875862123 -0.046666433353418996 0.037470724438560317 -0.038900967308537891 0.030871267562991078 0.038868612698355585 -0.085403626497192422 0.037833226111945645 -0.014344411670953043
leaf_weight=28435.688102304935 4588.4201464802027 27034.273955270648 14450.527100160718 11354.363611638546 16259.589024402201 14584.378763213754 34778.339829578996 33779.744583830237 10871.080570504069 31889.706396386027 27150.857712835073 1499.4021916687489 19819.324488505721 13561.614692106843 22199.293856546283 39340.779101058841 12945.131885074079 28002.581057369709 10876.105030037463 1544.3748962432146 25812.347979791462 12075.943762771785 6919.0129412487149 29067.195923134685 10258.688452109694 19836.63572537899 7613.3673593476415 40933.985004641116 11436.751902803779 23799.533148646355
leaf_count=76222 13902 54065 31120 38547 72478 64195 135217 215523 67902 76236 82230 2966 104832 43681 109444 130528 55908 113744 54386 3246 135858 56285 35591 90844 51186 64128 23066 258101 36784 101785
internal_value=0 0.0107079 0.00540521 -0.0125175 -0.0391093 -0.0270785 -0.0386087 -0.0687301 -0.014895 0.0290984 0.0169209 0.00659964 -0.0507783 -0.00731589 -0.0588012 0.0392736 -0.0442231 -0.0174545 -0.0685314 -0.00410528 -0.0204751 -0.0157176 -0.0904364 0.0539624 -0.0660231 0.0127907 0.0765999 -0.0751514 0.00874049 -0.000724359
internal_weight=0 465185 430537 245118 127534 191326 144736 57363.1 70171.1 185419 124462 96026.8 109957 68875.9 93828.7 53791.3 34074.9 55314.3 71629.4 16128.8 53814.9 16664.4 40698.8 60956.9 21129.8 36096.2 34647.6 60753.3 46590.6 35153.9
internal_count=2400000 1767097 1689966 1068185 632903 906537 729421 321301 311602 621781 454701 378479 594204 296249 526763 161648 174996 252568 417319 67441 249602 70187 251114 167080 119088 136606 77131 362933 177116 140332
is_linear=0
shrinkage=0.1


Tree=5
num_leaves=31
num_cat=0
split_feature=303 2 3 23 94 195 279 195 2 3 192 347 159 1 159 205 195 192 236 192 259 347 207 207 192 2 192 347 205 159
split_gain=20759.7 15579.5 9838.99 9840.26 7650.96 6392.41 5457.97 5445.42 5237.06 4990.44 4533.77 3567.1 3393.4 2700.47 2663.4 2630.73 2223.96 2135.85 2112.64 1627.35 1535.63 1530.96 1555.54 1486.06 1418.04 1371.98 1370.12 1361.24 1255.85 1550.1
threshold=1.5000000000000002 0.87026647966339421 0.97530487804878063 1.0000000180025095e-35 1.0000000180025095e-35 1.0000000180025095e-35 1.0000000180025095e-35 1.0000000180025095e-35 0.97100840336134464 0.81365740740740755 1.0000000180025095e-35 1.0000000180025095e-35 1.0000000180025095e-35 0.82683658170914553 1.0000000180025095e-35 1.5000000000000002 1.0000000180025095e-35 1.0000000180025095e-35 1.5000000000000002 1.5000000000000002 1.5000000000000002 1.0000000180025095e-35 1.0000000180025095e-35 1.0000000180025095e-35 1.0000000180025095e-35 0.63762626262626265 1.5000000000000002 1.0000000180025095e-35 1.0000000180025095e-35 1.0000000180025095e-35
decision_type=2 2 2 2 2 2 2 2 2 2 2 2 2 2 2 2 2 2 2 2 2 2 2 2 2 2 2 2 2 2
left_child=2 7 20 5 12 6 25 9 17 -2 18 16 13 -3 15 -5 26 -8 23 21 -1 22 -10 -11 -17 -4 -6 -12 -27 -30
right_child=1 4 3 14 11 -7 8 -9 19 10 27 -13 -14 -15 -16 24 -18 -19 -20 -21 -22 -23 -24 -25 -26 28 -28 -29 29 -31
leaf_value=0.077581735603411695 0.03090263982246157 -0.031681526647927928 0.051445736731863714 0.053926661860196436 -0.028078092129993116 0.06538956350405016 -0.010974932347063728 0.033411044686099595 -0.048635216896933335 -0.051449965461353733 0.018196380856336774 -0.058856791729997707 0.023079204258381648 -0.086719239962172498 0.092245485562708215 -0.0030579324745214284 0.03393024153374874 0.039500224876567652 0.011119975762642988 0.046977120670187472 0.043416307060437448 -0.092919555497322504 0.0050643350633328152 -0.013266611075626922 0.037297202155284682 0.026922242654142444 0.031993247464014586 -0.025118765168239382 -0.011268878445768094 0.087785762295839675
leaf_weight=20043.80423900485 24765.015514887869 10927.963928997517 8747.3815449923277 31327.071738176048 24187.684327073395 12325.779793858528 33208.582219980657 38500.653898753226 39642.340510159731 42821.236900724471 29874.250735752285 16787.082876443863 3625.3922033756971 48395.793556876481 8492.0043506100774 20374.808102943003 11179.160185337067 11214.2709293589 8503.90849455446 1876.6571775004268 38281.340931035578 6576.1550591364503 6244.0102341324091 13376.718799084425 15205.821659833193 21082.152998156846 4503.8521873876452 9582.5363178476691 26465.807582587004 1680.1187295541167
leaf_count=41076 77354 54762 23362 81594 118255 31147 142091 121128 213614 234263 104175 95727 12009 312396 14381 84212 35162 34870 33685 5517 110120 42582 25828 60910 46815 67897 14019 45972 111966 3111
internal_value=0 -0.0192824 0.0182525 0.00944758 -0.0468465 -0.00395094 -0.00940385 0.000409149 -0.0237012 -0.00944625 -0.0190397 -0.0201874 -0.0708411 -0.0765808 0.0394901 0.0327943 -0.00390612 0.0017672 -0.0353321 -0.044522 0.0551575 -0.047795 -0.041328 -0.0423612 0.0141883 0.0149519 -0.0186484 0.0076768 0.00846731 -0.005356
internal_weight=0 287031 302788 244463 119607 169063 156737 167424 98762 128924 104159 56657.8 62949.1 59323.8 75399.7 66907.7 39870.7 44422.9 64701.9 54339.2 58325.1 52462.5 45886.4 56198 35580.6 57975.5 28691.5 39456.8 49228.1 28145.9
internal_count=2400000 1319817 1080183 928987 642330 701985 670838 677487 464502 556359 479005 263163 379167 367158 227002 212621 167436 176961 328858 287541 151196 282024 239442 295173 131027 206336 132274 150147 182974 115077
is_linear=0
shrinkage=0.1


Tree=6
num_leaves=31
num_cat=0
split_feature=119 192 5 327 236 94 3 195 195 319 243 2 2 236 347 144 6 352 247 236 344 347 207 247 1 236 263 195 192 195
split_gain=18478.5 12137.1 13581.6 11055.5 8199.11 7296.19 6477.68 4583.2 4131.04 3845.08 3812.39 2978.41 2780.12 2682.85 1943.46 1701.66 1661.58 2104.7 1612.36 1562.07 1511.01 1497.01 1311.44 1292.87 1188.18 1178.99 1177.72 1103.73 1095.97 1038.85
threshold=1.0000000180025095e-35 1.0000000180025095e-35 0.84412955465587058 1.0000000180025095e-35 1.0000000180025095e-35 1.5000000000000002 0.9883720930232559 1.0000000180025095e-35 1.0000000180025095e-35 1.5000000000000002 1.0000000180025095e-35 0.86425061425061445 0.63762626262626265 1.0000000180025095e-35 1.0000000180025095e-35 1.0000000180025095e-35 0.47722567287784684 1.0000000180025095e-35 6.5000000000000009 1.0000000180025095e-35 1.0000000180025095e-35 1.0000000180025095e-35 1.0000000180025095e-35 1.5000000000000002 0.82247899159663873 1.0000000180025095e-35 1.0000000180025095e-35 1.0000000180025095e-35 1.5000000000000002 1.0000000180025095e-35
decision_type=2 2 2 2 2 2 2 2 2 2 2 2 2 2 2 2 2 2 2 2 2 2 2 2 2 2 2 2 2 2
left_child=1 2 23 7 8 6 20 10 11 25 -4 -5 -12 14 15 -8 -14 24 -6 27 -2 -7 -13 -1 -18 26 -3 -11 -28 -16
right_child=5 9 3 4 18 21 13 -9 -10 19 12 22 16 -15 29 -17 17 -19 -20 -21 -22 -23 -24 -25 -26 -27 28 -29 -30 -31
leaf_value=0.082934169393434842 -0.013332931647311653 0.074530393510519696 0.050770516399574611 -0.030192878958702853 0.033858235363781623 0.032689545980830688 -0.096644719223581421 0.055717998622500819 0.0023159884482656223 -0.008010921090781024 0.03294549104381625 -0.074113642569629545 0.0081487685034377418 -0.021711091708370305 -0.094498202950980048 -0.034065199593102911 0.015560803892090986 0.02578083508458557 -0.0056991422714289955 0.036461847314429564 0.068359017853483958 -0.014792747430542479 -0.031941237730184924 0.043121272894183271 -0.034425368464909366 0.074033352709645187 0.029204609296253643 0.0336377292137355 0.068070413725334761 -0.046248156162271202
leaf_weight=12009.555897437036 25950.768654040992 10105.345453888178 15603.166183874011 41471.487051680684 17319.570401437581 15315.246068947017 5786.7918976247311 20500.29983265698 18099.658492222428 25708.129299663007 18604.859471447766 40745.544140778482 32896.283149637282 13003.902885392308 29100.872942000628 17442.011112943292 5379.3724629953504 8397.5743000581861 25437.803806334734 22001.683734469116 2480.5977846235037 11721.88295610249 9003.0831268876791 25423.592275679111 40993.210664831102 16489.52122951299 36985.3250162974 8455.8699464127421 9026.0360910147429 5270.4511121213436
leaf_count=22629 109480 20974 39649 206535 57926 50187 38903 52586 70567 104804 56690 266638 121618 61354 196095 87832 20479 28650 108645 66569 5997 55714 47302 71905 203324 36358 116926 25362 20961 27341
internal_value=0 0.00926884 -0.000841961 -0.00805474 -0.0268032 -0.0339381 -0.0465078 0.0119714 -0.0413246 0.0353275 0.00461285 -0.0499836 -0.0021642 -0.062737 -0.0719991 -0.0496551 -0.00961529 -0.0202848 0.0103242 0.0156806 -0.00620542 0.0121037 -0.0664816 0.0558943 -0.0286268 0.0505257 0.0436181 0.00229746 0.0368289 -0.0870996
internal_weight=0 460657 331885 294452 152077 126073 99035.4 142375 109320 128772 121874 91220.1 106271 70604 57600.1 23228.8 87666.4 54770.2 42757.4 56165.7 28431.4 27037.1 49748.6 37433.1 46372.6 72606.2 56116.7 34164 46011.4 34371.3
internal_count=2400000 1767097 1375143 1280609 757613 632903 527002 522996 591042 391954 470410 520475 430761 411525 350171 126735 374071 252453 166571 196735 115477 105901 313940 94534 223803 195219 158861 130166 137887 223436
is_linear=0
shrinkage=0.1


Tree=7
num_leaves=31
num_cat=0
split_feature=159 2 6 347 5 94 192 275 347 4 6 94 291 240 94 5 94 323 5 236 94 255 347 240 240 327 2 121 239 327
split_gain=17113.7 17362.8 15653.7 7225.15 6156.06 4659.49 4189.98 4235.62 3776.95 2784.18 2554.02 2407.1 2352.17 2831.04 1878.64 1800.83 1434.38 1425.97 1352.55 1179.58 1165.49 1128.11 1101.11 1043.62 1017.24 1007.03 976.475 951.609 854.217 836.574
threshold=1.0000000180025095e-35 0.67156862745098056 0.661904761904762 1.0000000180025095e-35 0.91779279279279291 1.5000000000000002 1.0000000180025095e-35 1.0000000180025095e-35 1.0000000180025095e-35 0.84292763157894746 0.63818181818181829 1.0000000180025095e-35 1.0000000180025095e-35 1.0000000180025095e-35 1.5000000000000002 0.86285266457680254 1.0000000180025095e-35 1.0000000180025095e-35 0.71714285714285719 1.0000000180025095e-35 1.0000000180025095e-35 8.5000000000000018 1.0000000180025095e-35 1.0000000180025095e-35 1.0000000180025095e-35 1.5000000000000002 0.54006410256410264 1.0000000180025095e-35 1.0000000180025095e-35 1.0000000180025095e-35
decision_type=2 2 2 2 2 2 2 2 2 2 2 2 2 2 2 2 2 2 2 2 2 2 2 2 2 2 2 2 2 2
left_child=1 9 3 6 18 8 7 28 12 -1 19 15 27 16 23 -9 -14 -8 -4 29 -19 -2 -7 -5 25 -17 -12 -6 -3 -11
right_child=21 2 4 14 5 22 17 11 -10 10 26 -13 13 -15 -16 24 -18 20 -20 -21 -22 -23 -24 -25 -26 -27 -28 -29 -30 -31
leaf_value=0.052058136125710225 0.073868399565541074 0.059982033740896348 0.060201721691874925 -0.060586627314743992 -0.021040500019333171 0.014994334045788786 0.04938623857510719 0.038306909009857837 -0.081479753691955203 0.038891518646205742 0.017264214856771171 0.012794042674658444 -0.067505397522714103 -0.022702442383615556 0.012280463320186204 -0.029412327483754087 -0.034879017048735361 -0.0059975805376526348 0.0015640325694871811 0.051799895894794279 0.033257544483610832 0.034218612936158736 -0.035207947057017186 -0.013322498376422645 0.0016172884884489284 -0.068269432271183747 -0.0082485844201136329 0.037833581149557531 0.020869961484884451 0.0050022711486439071
leaf_weight=30785.488674819469 29289.741718791425 6818.6142530888319 5470.1268350034952 20945.28396102041 24846.520418353379 16327.691466033459 28943.999733805656 4013.7388957813382 26795.685190618038 13974.715116381645 29037.731258876622 23827.879285953939 50294.698164455593 31867.888820581138 5893.6886940523982 29092.965615898371 18406.36569198221 11930.999125652015 14005.074951022863 22231.773762993515 20660.646151475608 9504.288477063179 5965.1720757707953 6012.9021712914109 7674.2585118710995 8653.4157887101173 31036.151727475226 3086.4721905216575 30840.157993234694 15214.661424659193
leaf_count=77429 61038 15202 12984 123927 112950 60079 74857 11897 174963 40227 102615 95603 316148 152882 24740 145971 93243 47181 55166 60081 63833 29255 31525 27635 32925 55083 129101 9934 101974 59552
internal_value=0 -0.00458883 -0.0152059 0.00411799 -0.0353382 -0.0411911 0.0123057 0.000695918 -0.0473282 0.0254367 0.0180862 -0.0133143 -0.0402068 -0.0473371 -0.0388633 -0.0258988 -0.0587641 0.0332328 0.018034 0.0344452 0.0188872 0.0641545 0.0015611 -0.0500446 -0.0315725 -0.0383204 0.00408346 -0.0145352 0.0279517 0.0212271
internal_weight=0 544655 402374 205309 197066 177590 172457 110921 155298 142281 111495 73262.3 128502 100569 32851.9 49434.4 68701.1 61535.6 19475.2 51421.2 32591.6 38794 22292.9 26958.2 45420.6 37746.4 60073.9 27933 37658.8 29189.4
internal_count=2400000 2309707 1840702 820828 1019874 951724 644526 458655 860120 469005 391576 341479 685157 562273 176302 245876 409391 185871 68150 159860 111014 90293 91604 151562 233979 201054 231716 122884 117176 99779
is_linear=0
shrinkage=0.1


Tree=8
num_leaves=31
num_cat=0
split_feature=159 2 6 5 94 119 347 263 94 349 327 236 243 94 94 195 5 344 1 236 263 121 240 350 94 4 347 247 164 109
split_gain=14046.1 14145.8 12880.7 5279.87 5458.36 4646.32 3927.05 2901.64 3960.84 2784.53 2496.54 1965.62 1935.47 2070.14 1892.52 1492.18 1442.38 1439.5 1437.26 1341.6 1254.97 1246.52 1112.1 1049.66 1035.45 1147.41 1013.21 979.096 932.681 1017.16
threshold=1.0000000180025095e-35 0.67156862745098056 0.59175084175084181 0.91779279279279291 1.5000000000000002 1.0000000180025095e-35 1.0000000180025095e-35 1.0000000180025095e-35 1.0000000180025095e-35 1.0000000180025095e-35 1.5000000000000002 1.0000000180025095e-35 1.5000000000000002 1.0000000180025095e-35 1.5000000000000002 1.0000000180025095e-35 0.88117647058823534 1.0000000180025095e-35 0.78679653679653694 1.0000000180025095e-35 2.5000000000000004 1.0000000180025095e-35 1.0000000180025095e-35 1.0000000180025095e-35 1.0000000180025095e-35 0.80384615384615399 1.0000000180025095e-35 5.5000000000000009 1.0000000180025095e-35 1.0000000180025095e-35
decision_type=2 2 2 2 2 2 2 2 2 2 2 2 2 2 2 2 2 2 2 2 2 2 2 2 2 2 2 2 2 2
left_child=1 10 5 20 6 7 9 -3 18 11 15 12 21 28 -7 16 -1 24 -9 -18 -4 23 -8 -5 25 -12 -6 -2 29 -14
right_child=27 2 3 4 26 14 22 8 -10 -11 17 -13 13 -15 -16 -17 19 -19 -20 -21 -22 -23 -24 -25 -26 -27 -28 -29 -30 -31
leaf_value=0.054252841053973128 0.075206727220589131 0.039481716585396294 0.052605338383058746 0.015182343620363529 0.017933681186494681 -0.039953014006283621 -0.085440228378385469 0.021310353579919113 0.03068093462472345 -0.068505040864675265 0.030236673022191157 -0.0021830049430736297 -0.052197521545085702 -0.015586795379413432 0.020279231872532388 0.066643137764368685 0.0093322141423557801 0.057479846280133223 -0.017075202710890084 0.041973144712694983 0.001244864440418929 0.085219541406305457 -0.045247572429819242 -0.040019454438617319 0.021093760629109122 -0.017050550500608587 -0.024658414060277814 0.043207874836817074 -0.07396334331350142 -0.020439862909582333
leaf_weight=16753.524276204407 18298.362291961908 35899.511986188591 6749.7119958028197 7306.536259368062 20777.486094392836 25100.970848977566 21589.890717677772 12143.798576250672 40642.47962962091 19998.26985013485 6294.2446131706238 23400.541087284684 36975.039740666747 25002.813452243805 6585.0765765011311 11990.772933110595 35958.619497299194 5138.2045270353556 49575.061883315444 19377.962272532284 16118.060506224632 1497.1145653277636 10106.856690339744 6517.0706364065409 18461.71811606735 27773.117634862661 7638.6232256293297 20028.434430614114 12562.632162258029 13868.000336878002
leaf_count=39854 35019 97682 17243 29507 74253 137581 151003 43315 132151 122987 18351 99519 220812 116166 24416 27167 129481 12960 226716 55251 63058 3173 56978 32737 63912 122029 39140 55274 80343 71922
internal_value=0 -0.00415739 -0.0137756 -0.0291961 -0.0342279 0.00710392 -0.0406972 0.0150195 0.00644026 -0.033819 0.0229879 -0.0283626 -0.0342685 -0.0399549 -0.0274354 0.0339787 0.0285456 0.00696305 -0.00952246 0.0207625 0.0164046 -0.00145527 -0.0726244 -0.0108423 0.00202168 -0.00831382 0.00648437 0.0584851 -0.049564 -0.0435353
internal_weight=0 541804 400056 230109 207241 169947 178825 138261 102361 147128 141748 127130 103729 88408.5 31686 84080.9 72090.1 57667.3 61718.9 55336.6 22867.8 15320.7 31696.7 13823.6 52529.1 34067.4 28416.1 38326.8 63405.7 50843
internal_count=2400000 2309707 1840702 1178841 1098540 661861 985147 499864 402182 777166 469005 654179 554660 489243 161997 251753 224586 217252 270031 184732 80301 65417 207981 62244 204292 140380 113393 90293 373077 292734
is_linear=0
shrinkage=0.1


Tree=9
num_leaves=31
num_cat=0
split_feature=195 255 2 192 236 242 319 4 192 347 327 319 1 319 240 195 142 164 192 195 96 347 337 192 344 207 327 162 1 2
split_gain=12943.9 12901.7 11608.6 4848.64 3966.82 2989.9 2799.51 2525.93 3129.83 2311.37 2127.01 2056.7 1729.16 1681.79 1663.43 1354.01 1288.66 1280.41 1237.65 1123.06 961.502 930.98 910.354 855.126 850.48 844.31 827.696 784.228 737.51 726.667
threshold=1.0000000180025095e-35 1.5000000000000002 0.89699381078691431 1.0000000180025095e-35 1.0000000180025095e-35 1.0000000180025095e-35 2.5000000000000004 0.84292763157894746 1.0000000180025095e-35 1.0000000180025095e-35 1.0000000180025095e-35 2.5000000000000004 0.97100840336134464 1.5000000000000002 1.0000000180025095e-35 1.5000000000000002 1.0000000180025095e-35 1.0000000180025095e-35 1.5000000000000002 1.5000000000000002 1.0000000180025095e-35 1.0000000180025095e-35 1.0000000180025095e-35 1.5000000000000002 1.0000000180025095e-35 1.0000000180025095e-35 1.5000000000000002 1.0000000180025095e-35 0.82480818414322254 0.73993558776167478
decision_type=2 2 2 2 2 2 2 2 2 2 2 2 2 2 2 2 2 2 2 2 2 2 2 2 2 2 2 2 2 2
left_child=1 5 4 10 7 14 15 -3 13 18 25 24 -12 -9 16 17 -1 20 26 29 -2 -10 -7 -11 -6 28 -5 -15 -4 -8
right_child=6 2 3 9 11 22 19 8 21 23 12 -13 -14 27 -16 -17 -18 -19 -20 -21 -22 -23 -24 -25 -26 -27 -28 -29 -30 -31
leaf_value=0.0078513759505286339 0.055581906775172156 0.022422146885288617 0.0051963339461272096 0.003304911239518388 0.024868377952881455 0.045947182765238105 0.019598178667638091 -0.01341466813299436 0.014265202739978944 -0.065351066559041132 -0.04112331149297907 -0.0031819350077889942 -0.074643797658232522 -0.05479815422770587 0.05090075656827802 0.0750176068855887 -0.047930392071120251 0.010633555750023263 0.032939047420202601 0.04352904117638768 0.026163061251407483 -0.023946900935061771 -0.045521861529253818 -0.0039582911422502108 0.068967749882562782 0.0013808444269216313 -0.031713094788727858 -0.026540198473571343 -0.044551986669403021 -0.013607296551264284
leaf_weight=52456.401004016399 29815.011570259929 18364.515665531158 3410.9461199566722 17678.559164471924 42952.662649065256 41800.382877826691 10621.807594820857 35920.367360673845 29596.052187748253 9169.9847142472863 25457.051615856588 32708.88502407074 38911.953915923834 23793.99020382762 8487.9437028095126 10828.859612472355 4496.4551010876894 14457.454577088356 8736.9458715692163 7099.1842248141766 17707.893679469824 8126.5539651662111 1117.1628965586424 3014.6750364974141 4868.9277475178242 6705.5422161594033 10918.486917488277 16724.074217312038 23584.434671409428 17364.61402670294
leaf_count=198167 75584 57165 14068 65969 143860 110586 34848 161150 103993 58310 151977 134040 278136 141769 22275 22790 23303 52495 25876 20413 56111 42261 5227 14287 11266 28492 51428 90313 129648 74193
internal_value=0 -0.00720383 -0.0162951 -0.0378512 -0.00136275 0.0230544 0.0312106 -0.0119994 -0.0175366 -0.0123438 -0.0507308 0.0161415 -0.0613869 -0.0291684 0.00960228 0.0423924 0.00344738 0.0366923 -1.23928e-06 0.00800623 0.0446199 0.0060332 0.0435662 -0.0501615 0.0293583 -0.0303775 -0.0100651 -0.0431345 -0.0382661 -0.00100468
internal_weight=0 469003 360645 147589 213056 108358 107895 132526 114161 49518.7 98069.9 80530.5 64369 76438.4 65440.8 72809.2 56952.9 61980.4 37334 35085.6 47522.9 37722.6 42917.5 12184.7 47821.6 33700.9 28597 40518.1 26995.4 27986.4
internal_count=2400000 2063566 1704008 818191 885817 359558 336434 596651 539486 215870 602321 289166 430113 393232 243745 206980 221470 184190 143273 129454 131695 146254 115813 72597 155126 172208 117397 232082 143716 109041
is_linear=0
shrinkage=0.1


Tree=10
num_leaves=31
num_cat=0
split_feature=159 271 2 94 94 3 5 23 192 236 327 119 1 347 205 119 327 142 160 8 2 327 6 164 148 109 192 236 344 195
split_gain=10786.2 10380.4 11079.7 5325.89 4671.47 4426.24 3460.77 2866.45 2263.04 2202.28 2107.97 2073.65 1978.91 1912.19 1597.21 1451.37 1288.27 1219.46 1211.8 1132.72 1059.68 917.228 904.893 884.995 883.37 859.465 828.16 823.103 793.161 783.887
threshold=1.0000000180025095e-35 1.5000000000000002 0.913664596273292 1.0000000180025095e-35 1.0000000180025095e-35 0.89379699248120315 0.95119047619047625 1.0000000180025095e-35 1.5000000000000002 1.0000000180025095e-35 2.5000000000000004 1.0000000180025095e-35 0.77598566308243744 1.0000000180025095e-35 1.5000000000000002 1.0000000180025095e-35 1.5000000000000002 1.0000000180025095e-35 1.0000000180025095e-35 0.68857758620689669 0.94804318488529027 1.5000000000000002 0.6198686371100165 1.0000000180025095e-35 1.0000000180025095e-35 1.0000000180025095e-35 1.5000000000000002 1.5000000000000002 1.0000000180025095e-35 1.0000000180025095e-35
decision_type=2 2 2 2 2 2 2 2 2 2 2 2 2 2 2 2 2 2 2 2 2 2 2 2 2 2 2 2 2 2
left_child=1 6 3 5 12 19 -1 9 13 14 18 16 -4 21 17 25 27 29 -5 -3 -16 -6 -2 -9 -18 -14 28 -7 -12 -8
right_child=22 2 4 10 8 11 7 23 -10 -11 26 -13 15 -15 20 -17 24 -19 -20 -21 -22 -23 -24 -25 -26 -27 -28 -29 -30 -31
leaf_value=0.057505842106813615 0.080780595434212135 0.034086703526079731 -0.011128497529715394 0.013962133504565039 0.0019462605637201452 -0.0091122122948354388 0.0074705393782249913 0.039660360184167569 0.031298394325334836 0.0459526970841551 -0.0095269511574744697 -0.053468316742730962 -0.061786741880059073 -0.057772260680799742 0.002577957472667319 -0.087736878748066155 -0.044261496062278888 -0.037801106938521942 0.043163020740860994 0.0016210112266695454 -0.040455557243586203 -0.029884116834071762 0.043469606927388771 -0.0054061703687569556 -0.014463241504077087 -0.033827717794120096 0.032686990082340953 0.039799057811599606 0.056671463795135525 0.056669285698110805
leaf_weight=19124.865192130208 8360.1586555615067 16065.481752447784 9533.0414172485471 25781.551907129586 20294.178300634027 35126.408476196229 56399.580224119127 36588.349276848137 8823.467096067965 10698.648826226592 32527.428884379566 19784.847534425557 30199.833539023995 12335.945765025914 9269.0851039811969 14518.325037285686 20638.627524070442 5780.8392421677709 31667.115611441433 32459.806423254311 14953.786617919803 16343.841501817107 29216.299451500177 4946.5587950125337 19207.091779649258 17289.068589605391 6656.4001449793577 3814.2168704047799 1916.5956402793527 3435.7953475862741
leaf_count=42865 14834 47160 46094 95535 83804 153350 213812 101496 28087 28982 142872 119221 199335 80197 35584 111050 116346 29395 96785 120292 81689 82465 75459 19061 90379 97986 21259 11499 4991 8116
internal_value=0 -0.00365167 -0.0127744 -0.000301554 -0.0364636 -0.0123538 0.01757 0.0121941 -0.0153197 0.00306433 0.0176878 -0.0245247 -0.0535458 -0.0237187 -0.00204311 -0.0600671 -0.0172564 0.00605822 0.0300584 0.0123696 -0.0239884 -0.0122529 0.0517707 0.0342932 -0.0298976 -0.0516078 0.000396754 -0.00432138 -0.00584342 0.0102956
internal_weight=0 536181 374983 245646 129338 147096 161198 142073 57797.4 100538 98549.1 98571.2 71540.3 48974 89839.1 62007.2 78786.3 65616.2 57448.7 48525.3 24222.9 36638 37576.5 41534.9 39845.7 47488.9 41100.4 38940.6 34444 59835.4
internal_count=2400000 2309707 1748707 1019689 729018 658247 561000 518135 274553 397578 361442 490795 454465 246466 368596 408371 371574 251323 192320 167452 117273 166269 90293 120557 206725 297321 169122 164849 147863 221928
is_linear=0
shrinkage=0.1


Tree=11
num_leaves=31
num_cat=0
split_feature=195 247 236 347 192 4 207 5 247 283 132 239 119 192 94 192 142 200 192 117 195 307 159 352 351 1 192 2 2 9
split_gain=9860.3 9176.95 8597.82 5223.62 5236.32 3425.91 2678.91 2196.08 2137.76 2078.12 1720.37 1701.77 1578.26 1345.98 1334.82 1257.47 1299.06 1208.7 1180.49 1119.67 1086.52 998.965 954.049 900.527 962.727 894.845 889.964 844.424 813.131 760.639
threshold=1.0000000180025095e-35 1.5000000000000002 1.0000000180025095e-35 1.0000000180025095e-35 1.0000000180025095e-35 0.94281045751633996 1.0000000180025095e-35 0.93844696969696983 7.5000000000000009 3.5000000000000004 1.0000000180025095e-35 1.0000000180025095e-35 1.0000000180025095e-35 1.5000000000000002 1.0000000180025095e-35 1.0000000180025095e-35 1.0000000180025095e-35 1.0000000180025095e-35 1.5000000000000002 1.0000000180025095e-35 1.5000000000000002 2.5000000000000004 1.0000000180025095e-35 1.0000000180025095e-35 1.0000000180025095e-35 0.95916666666666683 1.0000000180025095e-35 0.77097902097902116 0.79057017543859665 0.65833333333333344
decision_type=2 2 2 2 2 2 2 2 2 2 2 2 2 2 2 2 2 2 2 2 2 2 2 2 2 2 2 2 2 2
left_child=1 7 3 4 5 -3 10 -1 -4 22 17 -9 -5 21 -10 16 23 19 25 28 26 -6 27 24 -13 -14 -11 -2 -7 -26
right_child=9 2 8 12 13 6 -8 11 14 20 -12 15 18 -15 -16 -17 -18 -19 -20 -21 -22 -23 -24 -25 29 -27 -28 -29 -30 -31
leaf_value=0.060891436726441484 0.051510462567028771 0.0084244376209142696 0.026143872383156463 -0.017105467764116051 0.0094305577416205003 -0.014560213035091613 -0.0039273961467349459 0.047880851136402079 -0.020081344387544643 -0.010616541750846309 -0.063782459047264359 -0.01504004543072862 -0.048186844913837269 0.0334714290143103 0.014385714352692156 0.039319011259466331 -0.057858533297753229 -0.0027781400509414057 -0.010723324841036956 -0.063452101079336867 0.042421563148171942 -0.019361158960588137 0.070078070623976099 0.058773493191100472 0.0057045684060549589 -0.081411218196633037 0.020910272260090009 0.025029295014308936 -0.039580332002721277 0.0440669798377651
leaf_weight=12556.266632534564 18508.730321832001 24471.173147924244 51894.486481375992 9997.9124859571457 35413.855164006352 19036.633056432009 26746.624410040677 13717.899190366268 23543.467608712614 20145.513111427426 22643.885133557022 17843.168895617127 13637.464186623693 15050.890543751419 21493.956367276609 11388.613262847066 3319.0667917430401 11606.392750695348 4039.6434163078666 13560.803597509861 8881.2964441031218 18266.634831540287 8663.2915585562587 3118.9681334644556 22856.34541528672 19987.926727578044 16117.503085434437 34463.166396550834 40888.274142280221 6678.81061976403
leaf_count=25651 45833 89677 170105 51994 126531 84819 124829 33061 110106 85079 154000 77337 85507 43968 80324 31436 18040 56937 19956 91082 24995 80467 15668 7141 85842 148876 53286 111573 246502 19378
internal_value=0 -0.00633114 -0.0133043 -0.0223211 -0.0160192 -0.0259914 -0.0322538 0.0220465 0.0123091 0.0273741 -0.0392862 0.0158665 -0.0524249 0.00704313 -0.00363206 0.00913126 0.00274294 -0.0327675 -0.0618002 -0.037504 0.0110735 -0.000366815 0.0393134 0.00672613 0.00329979 -0.0679364 0.0033959 0.034282 -0.0316321 0.0143795
internal_weight=0 463759 372280 275348 227685 158954 134483 91479.1 96931.9 106780 107736 78922.9 47662.9 68731.4 45037.4 65205 53816.4 85092.1 37665 73485.7 45144.3 53680.5 61635.2 50497.3 47378.3 33625.4 36263 52971.9 59924.9 29535.2
internal_count=2400000 2063566 1765680 1405145 1098812 847846 758169 297886 360535 336434 633340 272235 306333 250966 190430 239174 207738 479340 254339 422403 163360 206998 173074 189698 182557 234383 138365 157406 331321 105220
is_linear=0
shrinkage=0.1


Tree=12
num_leaves=31
num_cat=0
split_feature=352 327 3 94 160 192 149 2 243 251 3 1 94 347 119 236 164 6 192 6 195 8 347 205 205 351 98 195 23 247
split_gain=8246.13 8426.21 8039.97 4956.3 2844.89 2759.05 2607.28 2226.3 1918.86 1742.69 1704.79 1583.51 1530.14 1418.31 1413.04 1304.73 1182.38 1178.56 1060.42 1051.52 1036.83 992.181 961.753 753.795 742.633 729.863 706.894 642.663 613.783 606.206
threshold=1.0000000180025095e-35 1.0000000180025095e-35 0.94201680672268917 1.0000000180025095e-35 1.0000000180025095e-35 1.0000000180025095e-35 1.0000000180025095e-35 0.56385869565217395 6.5000000000000009 1.0000000180025095e-35 0.64495798319327746 0.93649193548387111 1.0000000180025095e-35 1.0000000180025095e-35 1.0000000180025095e-35 1.0000000180025095e-35 1.0000000180025095e-35 0.73205128205128212 1.0000000180025095e-35 0.661904761904762 1.0000000180025095e-35 0.70135135135135152 1.0000000180025095e-35 1.5000000000000002 6.5000000000000009 1.0000000180025095e-35 1.0000000180025095e-35 1.0000000180025095e-35 2.5000000000000004 12.500000000000002
decision_type=2 2 2 2 2 2 2 2 2 2 2 2 2 2 2 2 2 2 2 2 2 2 2 2 2 2 2 2 2 2
left_child=1 5 10 6 15 7 14 -1 -2 -9 -3 -11 29 -7 19 22 20 -6 21 26 23 -12 -5 25 -8 -13 -4 -23 -14 -10
right_child=8 2 3 4 17 13 24 9 12 11 18 16 28 -15 -16 -17 -18 -19 -20 -21 -22 27 -24 -25 -26 -27 -28 -29 -30 -31
leaf_value=0.031707479970396461 0.047002124850572743 0.037800954220641607 -0.041514368529173597 -0.02480965553716143 0.020790046786828897 0.039012298763529164 0.00053606999501379837 0.023087319659369811 0.0084925165709451543 0.018846079274049462 0.016664442134322176 -0.026101159252853098 0.027927799927806481 -0.012430272183809727 -0.071809021004451398 0.0065046237539269748 -0.046717419346893344 -0.014447083538152961 0.018869089871061798 -0.052399424506225013 0.02484211638468074 -0.021783986454949229 -0.061629335910724219 -0.025974440375625237 -0.031432878175227531 0.0069075077992027866 -0.0094902621376428513 0.01188362445549839 0.077312837162098705 -0.026421354600138093
leaf_weight=24763.256697945297 34709.972840331495 16732.752426460385 15145.718855209649 23054.096993155777 29475.024065583944 41161.043040432036 15620.757501423359 23507.224940471351 16663.347737632692 18551.353720955551 13728.229535810649 9642.4127390608191 21936.469202235341 6161.827869027853 20510.754070408642 9144.6859294101596 9513.1597848162055 14000.447362907231 25890.920727200806 38963.525740541518 7957.8037754222751 28210.652993008494 10247.592191033065 26789.056901343167 13586.422127753496 21941.397419124842 12649.888850204647 7095.7660155743361 2842.7955054044724 7088.6114160642028
leaf_count=69457 92511 43721 86330 110790 112026 110464 68355 69028 65694 66358 47472 45406 73713 29767 155789 36154 51390 67826 87938 258341 24445 131527 69728 138092 74077 86332 61927 24653 5528 35161
internal_value=0 -0.00502413 -0.0156294 -0.0267568 -0.00853697 0.0113903 -0.040197 0.00444977 0.0290492 -0.00127522 0.008942 -0.00734222 0.016209 0.0323141 -0.0488524 -0.0269524 -0.0137479 0.0094426 0.00249707 -0.0417993 -0.00901935 -0.00614757 -0.0361398 -0.0136356 -0.0143351 -0.00316991 -0.0269401 -0.0150176 0.0335935 -0.00192729
internal_weight=0 484046 294057 202399 85921.8 189989 116477 142666 83241.2 117902 91658.3 94395.2 48531.2 47322.9 87269.9 42446.4 75843.8 43475.5 74925.6 66759.1 66330.7 49034.6 33301.7 58372.9 29207.2 31583.8 27795.6 35306.4 24779.3 23752
internal_count=2400000 2127393 1436654 1101343 396524 690739 704819 550508 272607 481051 335311 412023 180096 140231 562387 216672 345665 179852 291590 406598 294275 203652 180518 269830 142432 131738 148257 156180 79241 100855
is_linear=0
shrinkage=0.1


Tree=13
num_leaves=31
num_cat=0
split_feature=195 275 244 192 347 5 207 5 23 327 311 240 162 299 195 96 119 344 164 200 352 94 207 4 38 192 30 157 121 352
split_gain=7456.14 7069 7182.22 3486.13 2917.89 2540.54 2367.82 2326.19 2032.03 1701.53 1688.47 1672.98 1293.74 1237.01 1058.09 1042.75 929.931 919.294 893.155 763.572 731.931 693.681 661.923 772.402 703.237 658.439 591.55 638.554 687.063 577.609
threshold=1.0000000180025095e-35 1.5000000000000002 1.0000000180025095e-35 1.5000000000000002 1.0000000180025095e-35 0.95119047619047625 1.0000000180025095e-35 0.81980519480519487 1.0000000180025095e-35 2.5000000000000004 3.5000000000000004 1.0000000180025095e-35 1.0000000180025095e-35 1.0000000180025095e-35 1.5000000000000002 1.0000000180025095e-35 1.0000000180025095e-35 1.0000000180025095e-35 1.0000000180025095e-35 1.0000000180025095e-35 1.0000000180025095e-35 1.0000000180025095e-35 1.0000000180025095e-35 0.90550595238095244 1.0000000180025095e-35 1.0000000180025095e-35 1.0000000180025095e-35 1.0000000180025095e-35 1.0000000180025095e-35 1.0000000180025095e-35
decision_type=2 2 2 2 2 2 2 2 2 2 2 2 2 2 2 2 2 2 2 2 2 2 2 2 2 2 2 2 2 2
left_child=1 5 3 4 6 -1 7 -3 11 14 17 13 19 18 15 -2 -6 20 26 29 22 -17 23 -4 -25 -12 27 28 -7 -9
right_child=9 2 10 -5 16 8 -8 12 -10 -11 25 -13 -14 -15 -16 21 -18 -19 -20 -21 -22 -23 -24 24 -26 -27 -28 -29 -30 -31
leaf_value=0.045449968928630638 0.037633074508206153 0.019909550187257555 0.022859263849641934 0.019812748533058075 -0.024903054513408879 0.00027717694287258797 0.00070193134948728702 -0.052470745387559518 0.027882460673523065 0.0041899280904124248 -0.025011215675193956 0.029552326892424392 -0.0209961095235363 -0.025691250037317107 0.060633207864087948 -0.0040213211736493107 -0.066598030012152795 0.056150680049716663 -0.040720138851462834 -0.018756712901167611 0.031183598919645769 0.028902890407807441 0.025344957825189626 0.001297951303199862 -0.030285351709990162 0.0022943303234799267 0.017967823086128463 -0.028572637941840062 0.068406410510052904 -0.014090388144888485
leaf_weight=19389.904216878116 38035.986023463309 8167.1392943188548 11502.254048891366 14720.192847922444 6758.4726776257157 30538.780558519065 29236.732368528843 47762.91448622942 34438.714189812541 30925.699794054031 20275.861550107598 16080.696859717369 37638.010965466499 22614.015237979591 11057.650738060474 13530.620164886117 25651.645972549915 4644.5596876889467 4675.1236168816686 9697.8461593240499 13748.861783728004 12141.530694380403 13398.952071756124 27436.999878562987 9487.8691433742642 15645.348949328065 21546.032054178417 7649.2363220751286 1555.6338278353214 4271.8794282451272
leaf_count=46136 107268 25269 36083 50755 38196 120898 129444 302182 102520 116163 104621 49389 205225 121832 24538 51641 190808 11449 23132 50832 44871 36824 48548 117646 49152 61803 72923 36273 3723 19856
internal_value=0 -0.00554473 -0.0145687 -0.0268638 -0.030925 0.0115392 -0.0245322 -0.0313926 0.00681217 0.0239183 0.00490012 -0.000121113 -0.0356091 -0.00550806 0.0320787 0.0271225 -0.0579034 0.0129686 0.00141113 -0.0445186 0.0103147 0.01155 0.00567394 0.000231306 -0.0068174 -0.0131184 0.00462486 -0.00260869 0.00357944 -0.0493198
internal_weight=0 458534 300046 183905 169185 158488 136775 107538 139098 105691 116141 104660 99370.7 88578.8 74765.8 63708.1 32410.1 80219.5 65964.8 61732.6 75574.9 25672.2 61826.1 48427.1 36924.9 35921.2 61289.7 39743.7 32094.4 52034.8
internal_count=2400000 2063566 1486740 1012567 961812 576826 732808 603364 530690 336434 474173 428170 578095 378781 220271 195733 229004 307749 256949 372870 296300 88465 251429 202881 166798 166424 233817 160894 124621 322038
is_linear=0
shrinkage=0.1


Tree=14
num_leaves=31
num_cat=0
split_feature=236 279 94 5 160 267 243 119 195 3 347 109 192 142 132 344 307 94 344 2 23 164 148 205 5 236 135 347 243 206
split_gain=6587.19 7103.23 4771.23 3680.56 2633.67 2582.16 2384.2 2059.89 1715.26 1523.25 1310.23 1260.21 1200.64 1478.34 1112.85 1007.37 957.829 929.813 913.969 823.93 808.71 776.404 740.877 721.563 709.301 642.853 623.604 618.793 609.849 606.013
threshold=1.0000000180025095e-35 1.5000000000000002 1.0000000180025095e-35 0.94201680672268917 1.0000000180025095e-35 5.5000000000000009 1.0000000180025095e-35 1.0000000180025095e-35 1.0000000180025095e-35 0.94365079365079374 1.0000000180025095e-35 1.0000000180025095e-35 1.0000000180025095e-35 1.0000000180025095e-35 1.0000000180025095e-35 1.0000000180025095e-35 4.5000000000000009 1.5000000000000002 1.0000000180025095e-35 0.63762626262626265 1.0000000180025095e-35 1.0000000180025095e-35 1.5000000000000002 1.5000000000000002 0.65108695652173931 1.5000000000000002 1.0000000180025095e-35 1.0000000180025095e-35 3.5000000000000004 1.0000000180025095e-35
decision_type=2 2 2 2 2 2 2 2 2 2 2 2 2 2 2 2 2 2 2 2 2 2 2 2 2 2 2 2 2 2
left_child=1 6 3 24 10 18 -1 11 9 -8 -4 14 13 23 19 17 22 25 20 -5 28 -13 -6 29 -3 -7 -25 -14 -2 -11
right_child=5 2 4 7 16 15 8 -9 -10 12 -12 21 27 -15 -16 -17 -18 -19 -20 -21 -22 -23 -24 26 -26 -27 -28 -29 -30 -31
leaf_value=0.038679508067627905 0.034825463007652553 0.041469514042489344 -0.0078563489653374445 -0.0037201473707263576 0.014482303864421878 -0.015621138366517807 0.028528429773555925 -0.061965730795577684 0.032545818169325086 0.0012886479610130694 -0.043799324312172719 -0.0058933385252473939 0.021710419090812141 -0.04895423302104765 -0.069568165278544369 0.043358636008180899 -0.01000063509626754 0.02807915032664109 0.063489762364456775 -0.038696372956570808 0.04513932019835025 -0.039522544905653698 0.047708240010858646 -0.024126543981724355 -0.0024433411768538761 0.0089345842826679921 0.012620965909212132 -0.024786106326826911 0.012183279949902514 0.10531335532655271
leaf_weight=23896.662747897208 19269.52418833971 4443.6388638317585 37495.568137004972 8196.5900656804442 35428.789837405086 28691.060813054442 16928.977701328695 25150.964691922069 19225.046360984445 49153.952159494162 13902.172996357083 25862.599897161126 21886.638087816536 8429.7180344238877 9805.3704785108566 5756.8038312569261 13155.805739924312 9374.7707552313805 7837.8995176255703 37773.064989499748 18830.270184144378 9346.1624050140381 8279.3890120014548 24343.130915991962 21356.575455062091 16965.275725632906 5699.1424844712019 3292.8537668064237 31085.417839415371 566.48088329285383
leaf_count=58928 54278 10864 161792 34406 139449 130188 47189 190852 53251 197739 88874 127301 66519 49274 70321 16164 60409 30466 16848 234733 49916 54739 24113 126195 86886 63954 23180 18157 112001 1014
internal_value=0 -0.00620375 -0.0169846 -0.0290451 -0.00117276 0.0189654 0.00934974 -0.0366351 0.00466237 0.000548354 -0.0175783 -0.0296329 -0.0036297 -0.00912842 -0.0389837 0.00355718 0.0136557 -0.000606452 0.0311258 -0.03246 0.0274593 -0.0148202 0.0207761 -0.00491943 0.00511989 -0.00649656 -0.0171554 0.0156298 0.0208479 0.00247383
internal_weight=0 423619 250197 141935 108262 137811 173423 116135 149526 130301 51397.7 90983.8 113372 88192.4 55775 60787.9 56864 55031.1 77023.1 45969.7 69185.2 35208.8 43708.2 79762.7 25800.2 45656.3 30042.3 25179.5 50354.9 49720.4
internal_count=2400000 1926185 1284739 810102 474637 473815 641446 712352 582518 529267 250666 521500 482078 397402 339460 240772 223971 224608 233043 269139 216195 182040 163562 348128 97750 194142 149375 84676 166279 198753
is_linear=0
shrinkage=0.1


Tree=15
num_leaves=31
num_cat=0
split_feature=159 2 6 347 1 206 307 311 193 105 263 323 94 94 148 192 1 3 5 1 162 6 195 162 192 349 349 142 94 10
split_gain=6110.97 6244.52 6039.63 2334.87 2033.84 1817.15 1829.5 1794.49 1609.4 1465.19 1449.25 1177.5 1111.31 1101.6 977.948 952.852 928.691 820.38 797.815 732.076 713.418 671.294 668.284 592.076 573.705 568.51 565.393 561.407 549.549 539.086
threshold=1.0000000180025095e-35 0.77097902097902116 0.661904761904762 1.0000000180025095e-35 0.95916666666666683 1.0000000180025095e-35 1.5000000000000002 1.0000000180025095e-35 1.0000000180025095e-35 1.0000000180025095e-35 1.0000000180025095e-35 1.5000000000000002 1.5000000000000002 1.0000000180025095e-35 1.5000000000000002 1.0000000180025095e-35 0.89237451737451756 0.63397129186602885 0.84412955465587058 0.96362433862433872 1.0000000180025095e-35 0.6198686371100165 1.0000000180025095e-35 1.0000000180025095e-35 1.5000000000000002 1.0000000180025095e-35 1.0000000180025095e-35 1.0000000180025095e-35 1.5000000000000002 0.32200460829493094
decision_type=2 2 2 2 2 2 2 2 2 2 2 2 2 2 2 2 2 2 2 2 2 2 2 2 2 2 2 2 2 2
left_child=1 5 3 8 11 6 15 25 9 10 29 -4 23 18 19 17 -12 -1 -8 -5 -20 -2 27 -9 26 -6 -11 -19 -13 -3
right_child=21 2 4 14 7 -7 13 12 -10 24 16 28 -14 -15 -16 -17 -18 22 20 -21 -22 -23 -24 -25 -26 -27 -28 -29 -30 -31
leaf_value=0.041166986662325156 0.065804530594145677 -0.0041774133971201107 0.0063596060872203736 -0.0119214323906168 -0.01317754778420685 0.081114296557796048 0.017628054995556756 -0.059290632401706671 -0.029253618802776618 0.023334528847959633 0.012848335371086209 -0.026964034977826186 -0.012025536640089511 0.014633333273587937 0.022094246663080543 0.039975519832023888 -0.013348522654410873 0.0099788229323846019 -0.023612581541623941 -0.047939720414218435 0.00035986953318171223 0.032663787728264462 0.037417939591344818 -0.037145178413015158 0.049622153456853335 -0.078396798476341817 -0.016704386835893602 -0.023726137520218595 0.0032845198499729142 0.029731058817973402
leaf_weight=10295.883181929588 7809.5768543630838 6076.1866895854473 23248.86739141494 9644.0922499597073 31350.717014357448 3705.71736433357 10565.847954578698 31247.828395046294 11555.303997829556 34707.127028986812 19119.892293125391 34575.559562638402 8681.0517467483878 36611.324637033045 3740.7544248700142 20101.287228427827 46305.835636124015 43796.568347625434 27061.135689362884 13601.709646344185 22936.052653089166 28119.338238537312 7949.0510771647096 19673.994093641639 7421.7883738055825 1396.0727276727557 3925.7649424001575 5570.3980947062373 7268.8464133888483 20530.818078242242
leaf_count=23964 14834 21026 100310 51597 146740 7589 32418 233659 57735 119518 74077 198903 40658 131359 16757 53826 219308 153224 131881 89829 98355 75459 20704 129527 17861 8966 18007 25125 30519 56265
internal_value=0 -0.00276798 -0.0109806 0.00171392 -0.025222 0.0117797 0.0103901 -0.0347642 0.00659646 0.00959643 0.00230966 -0.0116843 -0.0450967 0.000939258 -0.0253602 0.0208603 -0.0056928 0.0151772 -0.00733903 -0.0329966 -0.0126153 0.0398673 0.0105086 -0.0507346 0.0241579 -0.015958 0.0192659 0.00617567 -0.0217095 0.0219875
internal_weight=0 522665 334072 176629 157443 188593 184888 92349.7 149643 138087 92032.7 65093.3 59602.9 97174.4 26986.6 87713.2 65425.7 67611.9 60563 23245.8 49997.2 35928.9 57316 50921.8 46054.7 32746.8 38632.9 49367 41844.4 26607
internal_count=2400000 2309707 1631262 741980 889282 678445 670856 559550 583797 526062 370676 329732 403844 394013 158183 276843 293385 223017 262654 141426 230236 90293 199053 363186 155386 155706 137525 178349 229422 77291
is_linear=0
shrinkage=0.1


Tree=16
num_leaves=31
num_cat=0
split_feature=149 327 23 148 311 3 195 3 207 287 164 192 344 1 73 344 252 142 94 192 105 96 142 205 243 207 3 109 240 94
split_gain=5639.84 5869.27 2852.55 2500.7 2396.37 2102 2052.71 1862.52 1812.21 1677.68 1529.86 1422.63 1334.88 1220.98 816.236 809.333 777.838 762.432 721.325 717.451 710.55 687.886 661.641 625.608 580.046 515.29 509.717 467.771 459.074 448.274
threshold=1.0000000180025095e-35 1.5000000000000002 1.0000000180025095e-35 1.5000000000000002 3.5000000000000004 0.967204301075269 1.0000000180025095e-35 0.58114035087719318 1.0000000180025095e-35 1.0000000180025095e-35 1.0000000180025095e-35 1.0000000180025095e-35 1.0000000180025095e-35 0.94804318488529027 1.0000000180025095e-35 1.0000000180025095e-35 1.0000000180025095e-35 1.0000000180025095e-35 2.5000000000000004 1.0000000180025095e-35 1.0000000180025095e-35 1.0000000180025095e-35 1.0000000180025095e-35 1.5000000000000002 2.5000000000000004 1.0000000180025095e-35 0.6043478260869567 1.0000000180025095e-35 1.5000000000000002 1.0000000180025095e-35
decision_type=2 2 2 2 2 2 2 2 2 2 2 2 2 2 2 2 2 2 2 2 2 2 2 2 2 2 2 2 2 2
left_child=1 2 6 5 12 26 7 -1 9 23 21 16 19 -11 17 25 -7 -15 27 22 -12 -4 24 -9 -2 -6 -3 -13 -24 -28
right_child=4 3 10 -5 15 11 -8 8 -10 13 20 18 -14 14 -16 -17 -18 -19 -20 -21 -22 -23 28 -25 -26 -27 29 -29 -30 -31
leaf_value=0.035166211183672205 0.039899246650426268 0.025817581848250594 0.031844610247569953 0.010015831873994409 -0.015359383457329182 -0.05396020468819257 0.032294332751719314 0.0054883386434396988 0.015377705550017934 -0.0046154400026007089 -0.031962430401873097 -0.039906608320724866 0.061033250417074962 -0.031252160638637914 -0.0092369746529506261 0.041023193310653183 -0.023411447019044004 -0.064802134972653927 0.026951686665403565 0.034303130541046618 0.0094791088133716651 0.010270524397958877 -0.014074110743661904 -0.015721331143036251 0.014644063693409197 0.010811829227007474 -0.022661137384077931 -0.012040788180169211 0.025133131086283862 0.0008641490930942743
leaf_weight=9857.7463980838656 12364.381291300058 3769.5601261183619 44405.141891032457 19596.307383790612 26259.394121676683 40759.641211338341 14265.815869711339 42382.717034459114 24952.656770318747 25046.753624208272 7524.1910131648183 11363.05385080725 9528.5410016551614 36757.093891255558 13294.354909054935 3729.9926387295127 10477.4597029984 8303.7714320644736 2987.3180816099048 30299.340561389923 9191.5353662893176 22152.010035291314 10558.984671451151 20698.96448443085 34383.758501403034 10544.055559724569 19666.25888723135 12821.094598948956 4164.1687923669815 13771.923784144223
leaf_count=24213 32433 10648 130214 81978 122741 305422 40374 154684 99301 114159 35758 62168 20661 213584 67070 10340 60821 60889 10351 90245 34150 78038 50976 93575 129427 42177 93681 60026 14562 55334
internal_value=0 -0.00591948 0.00237148 -0.0230169 0.0171858 -0.0286158 -0.00422872 -0.00710267 -0.00953317 -0.0137766 0.0178715 -0.0379042 0.0254081 -0.0230839 -0.0310108 -0.00336294 -0.0477133 -0.0374347 -0.0194073 0.0217091 -0.00917483 0.0246642 0.0155015 -0.00147118 0.0213238 -0.00786143 -0.00904215 -0.0251337 -0.00298508 -0.012972
internal_weight=0 414045 278833 135213 141833 115616 195560 181294 171436 146484 83272.9 78408.6 101299 83402 58355.2 40533.4 51237.1 45060.9 27171.5 91770.6 16715.7 66557.2 61471.3 63081.7 46748.1 36803.4 37207.7 24184.1 14723.2 33438.2
internal_count=2400000 1886438 1146009 740429 513562 658451 867849 827475 803262 703961 278160 498788 338304 455702 341543 175258 366243 274473 132545 317643 69908 208252 227398 248259 161860 164918 159663 122194 65538 149015
is_linear=0
shrinkage=0.1


Tree=17
num_leaves=31
num_cat=0
split_feature=349 149 347 192 251 207 248 3 148 344 327 135 206 291 119 73 200 195 1 203 350 155 195 142 164 144 73 256 192 341
split_gain=5050.26 4077.06 3613.61 3199.95 2662.54 1996.28 1681.75 1518.72 1400.38 1382.65 1296.66 1163.86 1069.27 954.756 949.649 926.577 917.686 912.15 906.827 699.393 702.312 670.705 722.598 694.013 635.705 633.932 632.654 577.361 564.174 545.163
threshold=1.0000000180025095e-35 1.0000000180025095e-35 1.0000000180025095e-35 1.0000000180025095e-35 1.5000000000000002 1.0000000180025095e-35 1.0000000180025095e-35 0.87026647966339421 1.5000000000000002 1.0000000180025095e-35 2.5000000000000004 1.0000000180025095e-35 1.0000000180025095e-35 2.5000000000000004 1.0000000180025095e-35 1.0000000180025095e-35 1.0000000180025095e-35 1.5000000000000002 0.85449735449735453 1.0000000180025095e-35 1.5000000000000002 1.0000000180025095e-35 1.0000000180025095e-35 1.0000000180025095e-35 1.0000000180025095e-35 1.5000000000000002 1.0000000180025095e-35 1.0000000180025095e-35 1.5000000000000002 3.5000000000000004
decision_type=2 2 2 2 2 2 2 2 2 2 2 2 2 2 2 2 2 2 2 2 2 2 2 2 2 2 2 2 2 2
left_child=1 2 3 4 11 7 15 -6 14 10 29 21 16 28 -4 -2 17 19 -16 20 -9 22 23 -1 -18 -15 -20 -22 -5 -3
right_child=6 9 8 13 5 -7 -8 12 -10 -11 -12 -13 -14 25 18 -17 24 -19 26 -21 27 -23 -24 -25 -26 -27 -28 -29 -30 -31
leaf_value=-0.0019425705868455316 -0.055790703608643348 0.017994913295903772 -0.0067576568993662879 0.021463297120716658 0.0075370223194040839 0.010802138446362783 -0.0061094538917021305 -0.019013276810255896 0.024024068222267245 0.053434685165961775 0.00027788258363085498 0.050240698948735507 0.070191579176010738 -0.0012786715502489218 -0.011490134693644335 -0.02516486203334108 0.0092635521128355564 0.036165309076520678 -0.061592323008658745 0.094681869671145974 -0.042914038838215547 0.019428540790834125 0.038149822407669343 -0.061464889190233733 -0.038250892534353514 0.038842935900318551 -0.028955243956195104 -0.014407554887982111 0.047531042817682195 0.036741770612347555
leaf_weight=34359.509991690516 17920.471027821302 51976.422809526324 10947.665705852211 46512.694624014199 20394.398550331593 31636.915201850235 25690.502201355994 34057.495351403952 4884.5867034047842 10898.227014377713 35194.451157294214 6983.6000979393721 1233.3803685605526 27356.301605537534 8116.8234431520104 22014.561074644327 12382.646530754864 2183.3273523747921 16467.957057453692 452.36322565376759 39448.206013977528 27551.560162089765 4268.9034130573273 2077.3117696866393 3644.5973930880427 4600.3403960168362 9289.9997811168432 8665.6891609206796 10106.439929574728 22110.922429293394
leaf_count=131493 120256 178942 53527 142577 70162 131361 111851 184311 21042 25060 149015 16562 3393 105584 42685 122159 57318 6109 122659 1133 259660 89843 10511 11843 21771 13574 59083 44450 23959 68107
internal_value=0 0.0034798 -0.00174737 0.00217296 -0.004062 -0.011591 -0.0260683 -0.017376 -0.026821 0.0194694 0.0160821 0.0113579 -0.0223539 0.0183165 -0.0323619 -0.0389079 -0.0234859 -0.0276331 -0.0406366 -0.029319 -0.0300017 0.00737968 -0.000775557 -0.00533602 -0.00154124 0.00449706 -0.0498213 -0.0377798 0.0261164 0.0235898
internal_weight=0 487803 367623 317916 229340 154099 65625.5 122462 49707 120180 109282 75240.9 102068 88575.8 44822.4 39935 100834 84807.1 33874.8 82623.8 82171.4 68257.3 40705.7 36436.8 16027.2 31956.6 25758 48113.9 56619.1 74087.3
internal_count=2400000 2045734 1624610 1325614 1039920 779668 354266 648307 298996 421124 396064 260252 578145 285694 277954 242415 574752 495663 224427 489554 488421 243690 153847 143336 79089 119158 181742 304110 166536 247049
is_linear=0
shrinkage=0.1


Tree=18
num_leaves=31
num_cat=0
split_feature=352 6 4 240 347 349 94 164 243 193 19 94 236 263 350 162 144 206 105 119 194 73 267 350 94 94 7 207 243 23
split_gain=4727.83 4569.9 4698.07 3402.01 2120.76 1699.17 1326.23 1159.46 1137.91 1107.23 1066.34 1027.5 1026.42 1011.46 851.22 1155.5 752.617 750.354 742.692 698.644 683.5 689.462 842.153 651.856 629.395 589.001 529.774 527.864 517.943 503.472
threshold=1.0000000180025095e-35 0.47722567287784684 0.94281045751633996 1.0000000180025095e-35 1.0000000180025095e-35 1.0000000180025095e-35 1.5000000000000002 1.0000000180025095e-35 5.5000000000000009 1.0000000180025095e-35 1.0000000180025095e-35 1.0000000180025095e-35 1.0000000180025095e-35 2.5000000000000004 1.0000000180025095e-35 1.0000000180025095e-35 1.5000000000000002 1.0000000180025095e-35 1.0000000180025095e-35 1.0000000180025095e-35 1.0000000180025095e-35 1.0000000180025095e-35 1.0000000180025095e-35 1.5000000000000002 1.0000000180025095e-35 1.5000000000000002 0.72111111111111115 1.0000000180025095e-35 4.5000000000000009 2.5000000000000004
decision_type=2 2 2 2 2 2 2 2 2 2 2 2 2 2 2 2 2 2 2 2 2 2 2 2 2 2 2 2 2 2
left_child=1 9 13 4 5 6 7 14 -2 12 24 -10 17 -3 -4 18 -7 20 -16 -6 21 22 -1 -20 28 -21 -15 -12 -5 -13
right_child=8 2 3 10 19 16 -8 -9 11 -11 27 29 -14 26 15 -17 -18 -19 23 25 -22 -23 -24 -25 -26 -27 -28 -29 -30 -31
leaf_value=0.020339670174233371 0.038843419584165303 0.033619754197478167 0.0047024749049083261 0.01325124225663908 -0.016285175339099251 -0.056171069374275608 0.015452724290599025 -0.038915148783031248 1.3612996066822745e-05 -0.020810524854364017 -0.021666497551210279 0.022790758390962628 0.038017688595335677 0.050114098961002551 -0.034533440150139559 -0.0030065740180612206 -0.0007101842537465099 0.080062790902156969 0.027022879133677492 -0.063543026862018778 -0.022118076690749104 0.027175444584222219 -0.0023130619117587748 -0.021923760286944729 0.020477474110743941 -0.023808753790131573 0.0037252245660686699 0.0069923282069495919 -0.01026244278248812 0.065911397986713888
leaf_weight=28410.746018603444 27496.724953383207 19174.957502298057 20343.747885599732 16297.568498879671 5564.1247443854809 15383.887316986918 13025.315943583846 21992.49696483463 26846.417677789927 9202.7502812594175 25335.222803294659 23409.176954559982 16877.832441091537 2608.0940773263574 37777.946497455239 31099.214347787201 2909.578582085669 1562.8786387816072 3972.1112309396267 18872.856543049216 6124.1277209222317 23422.396722085774 38857.994469702244 8637.3748177438974 23659.696460165083 4649.8033322617412 43906.815122179687 8611.4862965419888 22031.704050086439 3061.8934075310826
leaf_count=83156 73822 48810 88923 58279 33053 107411 46436 131314 113602 42625 128634 79070 45868 6581 221136 155680 13337 3227 14221 157688 29072 77103 167651 45986 84556 27608 165992 35971 107075 6113
internal_value=0 -0.00386318 -0.00977643 -0.01542 -0.023372 -0.0187263 -0.0148999 -0.0180928 0.0223198 0.0125689 -0.000149647 0.0137983 0.0152342 0.0142933 -0.0135958 -0.0181641 -0.04735 0.0113254 -0.0275193 -0.048151 0.0102158 0.0123992 0.00725425 -0.00650509 0.00765224 -0.0556886 0.00632625 -0.0143964 -0.000264447 0.0277785
internal_weight=0 470313 345854 280164 184228 155142 136848 123823 80814.2 124459 95935.7 53317.5 115256 65689.9 101830 81486.6 18293.5 98378.1 50387.4 29086.8 96815.3 90691.1 67268.7 12609.5 61989 23522.7 46514.9 33946.7 38329.3 26471.1
internal_count=2400000 2127393 1678691 1457308 1042793 824444 703696 657260 272607 448702 414515 198785 406077 221383 525946 437023 120748 360209 281343 218349 356982 327910 250807 60207 249910 185296 172573 164605 165354 85183
is_linear=0
shrinkage=0.1


Tree=19
num_leaves=31
num_cat=0
split_feature=206 164 23 195 2 94 315 240 1 240 30 350 96 341 148 157 121 119 23 2 160 164 236 251 8 347 5 119 5 23
split_gain=4306 4199.71 3369 2749.38 2470.68 2461.68 1861.55 1810.55 1447.63 1366.25 1209.43 1138.9 965.831 727.995 704.432 730.625 617.094 577.832 571.737 563.756 554.794 545.805 541.446 546.431 535.933 490.9 453.187 453.16 419.917 404.034
threshold=1.0000000180025095e-35 1.0000000180025095e-35 1.0000000180025095e-35 1.0000000180025095e-35 0.56385869565217395 1.5000000000000002 1.5000000000000002 1.0000000180025095e-35 0.93218390804597717 1.0000000180025095e-35 1.0000000180025095e-35 1.0000000180025095e-35 1.0000000180025095e-35 3.5000000000000004 1.0000000180025095e-35 1.0000000180025095e-35 1.0000000180025095e-35 1.0000000180025095e-35 2.5000000000000004 0.93142633228840133 1.0000000180025095e-35 1.5000000000000002 1.5000000000000002 5.5000000000000009 0.40588235294117653 1.5000000000000002 0.77032967032967048 1.0000000180025095e-35 0.77032967032967048 1.5000000000000002
decision_type=2 2 2 2 2 2 2 2 2 2 2 2 2 2 2 2 2 2 2 2 2 2 2 2 2 2 2 2 2 2
left_child=1 2 3 4 -1 7 8 13 -6 20 11 27 17 28 15 16 24 29 19 -14 26 -7 23 -9 -13 -15 -8 -10 -3 -4
right_child=-2 5 12 -5 6 21 9 22 10 -11 -12 14 18 25 -16 -17 -18 -19 -20 -21 -22 -23 -24 -25 -26 -27 -28 -29 -30 -31
leaf_value=0.014941216404815411 0.068513890851348194 0.0091883859373042345 0.025969120255167191 0.026376361676464594 0.014361239209013645 0.021160152200791607 0.0081779943702397131 0.0071872708246221613 0.0057080356915374482 -0.0058515638352259116 0.0065133634637382157 0.029719300685629627 0.01377579799857786 -0.016809672411954864 -0.0014865140959377096 -0.051120009573604103 0.039029624400112796 0.0017236892070168512 0.045721467963078848 -0.010494323792343628 -0.019021290664774565 -0.0066085977531241116 0.01434886651708835 -0.021809684675175245 -0.030498165432212471 -0.075316090038229505 -0.044443151760484634 -0.04788920511986966 -0.045772338358920077 0.047435169675699704
leaf_weight=50777.595710836351 9016.1741110682487 1445.3701312988997 47126.697042264044 31322.733925819397 37018.934367917478 16166.534686081111 1741.9478625208139 8940.9800656661391 21088.684453479946 32053.894028313458 34495.067609541118 1601.1923957020044 23111.749453641474 20680.146271117032 9437.7700250670314 12972.97384031862 1576.3935125097632 8282.4182123914361 3531.9928182214499 16335.442486554384 18361.762405514717 12590.986495673656 8567.5091316476464 23792.033929273486 19205.165752783418 1540.9860213026404 27075.779666259885 1705.0300849154592 36379.621264152229 10772.58982950449
leaf_count=166959 20436 4622 147611 94080 137850 57981 5690 34161 89778 150903 137483 5146 83635 111671 44122 82711 5359 37215 8902 70065 109247 54065 30148 119600 106326 12266 195480 12290 237725 26473
internal_value=0 -0.0011686 0.00380306 -0.00166371 -0.00492738 -0.0168205 -0.00954817 -0.0241477 -0.00257926 -0.0217827 -0.00872254 -0.0164986 0.0188488 -0.0352327 -0.0257586 -0.0322377 -0.0212936 0.026429 0.00717653 0.00372532 -0.0326064 0.00900208 -0.00803141 -0.0138892 -0.025864 -0.020867 -0.0412624 0.00169882 -0.0436722 0.029963
internal_weight=0 539700 409596 300435 269112 130104 218335 101347 139101 79233.4 102082 67587.2 109161 60046.1 44793.5 35355.7 22382.8 66181.7 42979.2 39447.2 47179.5 28757.5 41300.5 32733 20806.4 22221.1 28817.7 22793.7 37825 57899.3
internal_count=2400000 2379564 1717325 1343424 1249344 662239 1082385 550193 621065 461320 483215 345732 373901 366284 243664 199542 116831 211299 162602 153700 310417 112046 183909 153761 111472 123937 201170 102068 242347 174084
is_linear=0
shrinkage=0.1


Tree=20
num_leaves=31
num_cat=0
split_feature=192 3 327 244 192 347 347 207 5 135 205 307 148 311 149 218 203 207 164 200 247 142 3 319 243 352 207 2 349 195
split_gain=3816.71 3584.02 3159.72 2484.95 1451.34 1465.18 1356.61 986.641 927.44 909.907 936.035 895.184 825.492 772.907 742.526 730.492 606.74 597.504 686.082 577.434 513.676 507.49 501.111 493.274 481.824 468.236 467.409 440.696 418.88 417.432
threshold=1.0000000180025095e-35 0.79238505747126442 1.0000000180025095e-35 1.0000000180025095e-35 1.5000000000000002 1.0000000180025095e-35 1.0000000180025095e-35 1.0000000180025095e-35 0.77032967032967048 1.0000000180025095e-35 1.0000000180025095e-35 3.5000000000000004 1.0000000180025095e-35 3.5000000000000004 1.0000000180025095e-35 1.0000000180025095e-35 1.0000000180025095e-35 1.0000000180025095e-35 1.0000000180025095e-35 1.0000000180025095e-35 1.5000000000000002 1.0000000180025095e-35 0.44722222222222224 3.5000000000000004 1.5000000000000002 1.0000000180025095e-35 1.5000000000000002 0.97332859174964448 1.0000000180025095e-35 1.0000000180025095e-35
decision_type=2 2 2 2 2 2 2 2 2 2 2 2 2 2 2 2 2 2 2 2 2 2 2 2 2 2 2 2 2 2
left_child=1 22 9 6 5 11 7 8 -4 10 -3 17 -7 26 25 16 19 18 20 21 -2 -10 -1 -6 -11 28 29 -22 -12 -5
right_child=4 2 3 13 23 12 -8 -9 15 24 14 -13 -14 -15 -16 -17 -18 -19 -20 -21 27 -23 -24 -25 -26 -27 -28 -29 -30 -31
leaf_value=0.041021828484872305 0.037647694691106258 0.012366181964174754 0.051998434971937006 -0.0024798089083275846 0.036071056497798647 -0.029912339041256231 -0.049542096651250339 -0.0020493209451456365 -0.031319263608805575 0.051766797520393551 -0.011212798367246207 -0.0043296221423146332 0.0059039859962020328 -0.017682446500866044 0.015917284488599224 -0.0010600650595538328 0.09517686091875964 0.034168978895817013 -0.0063536594331666685 -0.010329342857474723 0.020875785093380474 -0.053477922031360793 0.015127697432474472 0.010332426225919065 0.013586963005612216 0.016613761306344503 0.059151811419186032 -0.00046439932940069519 -0.048193164398585168 0.020780465086553023
leaf_weight=9393.7950171902776 10944.042885221541 35187.357439234853 1456.8700797185302 32951.350371964276 28458.099956288934 14455.594093360007 21543.214643158019 20058.398677155375 41398.598144851625 4209.9334615245461 66484.032298862934 24675.980917349458 11597.960182137787 22968.458369277418 12232.008105531335 8533.2404182702303 371.97166422754526 16850.820124462247 14269.662076190114 9643.7432345449924 27425.459393531084 13774.784896031022 36562.209756046534 10084.430112078786 15383.550321370363 5817.6548875719309 1533.4132195040584 14953.310151271522 3210.929491199553 10074.168983705342
leaf_count=21317 26593 115677 4020 154649 81772 88604 172616 96858 278982 9340 305197 98530 55428 118274 40877 41286 954 47850 55302 56193 84841 105254 111802 36620 57201 20427 4594 56203 20153 32586
internal_value=0 -0.00572777 -0.00940449 -0.0180509 0.0122192 0.00733837 -0.0268805 -0.0217543 -0.0270117 0.00177667 -0.00141322 0.0124256 -0.0139684 -0.00278112 -0.00693904 -0.0285731 -0.0321746 0.0173218 0.0131218 -0.0329054 0.0183336 -0.0368515 0.0204207 0.0293367 0.0217904 -0.0106415 0.00489996 0.0133459 -0.0129165 0.00296645
internal_weight=0 372790 326834 184308 173715 135173 116781 95237.6 75179.2 142525 122932 109119 26053.6 67527.4 87744.6 73722.3 65189.1 84443.3 67592.5 64817.1 53322.8 55173.4 45956 38542.5 19593.5 75512.6 44558.9 42378.8 69695 43025.5
internal_count=2400000 1768257 1635138 1066266 631743 513351 756163 583547 486689 568872 502331 369319 144032 310103 386654 482669 441383 270789 222939 440429 167637 384236 133119 118392 66541 345777 191829 141044 325350 187235
is_linear=0
shrinkage=0.1


Tree=21
num_leaves=31
num_cat=0
split_feature=195 349 4 207 327 240 239 195 96 192 162 240 142 73 207 25 101 164 8 160 5 94 206 5 347 2 350 192 53 327
split_gain=3548.75 2978.23 2342.09 2205.16 2435.01 1535.45 972.661 968.594 936.304 922.58 880.384 801.446 664.856 656.576 633.835 549.224 536.157 524.699 512.714 502.487 508.159 494.843 472.252 434.331 431.697 429.277 419.008 402.412 388.085 369.972
threshold=1.0000000180025095e-35 1.0000000180025095e-35 0.90161290322580656 1.0000000180025095e-35 1.0000000180025095e-35 1.0000000180025095e-35 1.0000000180025095e-35 1.5000000000000002 1.0000000180025095e-35 1.0000000180025095e-35 1.0000000180025095e-35 1.5000000000000002 1.0000000180025095e-35 1.0000000180025095e-35 1.5000000000000002 1.0000000180025095e-35 1.0000000180025095e-35 1.0000000180025095e-35 0.70135135135135152 1.0000000180025095e-35 0.61721611721611735 1.0000000180025095e-35 1.0000000180025095e-35 0.76095238095238105 1.0000000180025095e-35 0.73798627002288331 1.0000000180025095e-35 1.0000000180025095e-35 1.5000000000000002 1.5000000000000002
decision_type=2 2 2 2 2 2 2 2 2 2 2 2 2 2 2 2 2 2 2 2 2 2 2 2 2 2 2 2 2 2
left_child=1 2 18 4 6 10 -4 8 24 12 19 13 16 23 17 -7 22 -5 -1 20 -6 25 26 -3 -2 -10 -8 -19 -28 -22
right_child=7 11 3 14 5 15 9 -9 21 -11 -12 -13 -14 -15 -16 -17 -18 27 -20 -21 29 -23 -24 -25 -26 -27 28 -29 -30 -31
leaf_value=0.032482906906142271 0.026034878193246305 0.013415434865908635 0.028893046718989401 0.014907213509994563 0.074286542896940241 0.004522143463008714 0.007854006524326251 0.038951729670876976 0.010902702272608696 0.014017036923973889 -0.011667862484775403 -0.0010086177756279844 -0.035693331929901262 -0.021277913748431965 0.038179801362931573 -0.01622586289655625 -0.024431742073461955 -0.018449450461022164 0.011611498649353173 -0.019235410680919291 -0.031887566148953383 0.012196289814652622 0.074145223810612199 -0.050384408970537302 0.00020531617008775105 -0.021109966004877866 -0.013164574090620546 0.011913597837922844 0.0090293240260315624 -0.051968059341334333
leaf_weight=18033.352182082832 39890.072874091566 1136.33467579633 11975.157519169152 40780.764345385134 388.11498694121838 31545.8724726215 29193.043806158006 16509.839535363019 6232.9407762885094 30610.263837739825 29793.186437286437 10002.23702545464 6990.9693647697568 23159.277259498835 8292.0534117370844 21422.571045309305 10746.167035013437 10340.668768391013 33887.008731462061 18013.596019715071 20829.35376854986 19045.27743883431 837.82991050183773 17498.294902592897 7723.4210675358772 12772.772494085133 32040.435929737985 7553.3417159318924 10447.949800655246 16399.039259359241
leaf_count=47965 117042 3453 30777 158847 815 136444 111566 43203 20615 101644 177251 41944 40128 133561 29598 107407 53300 56672 111494 109220 137043 64968 1704 126580 32985 57621 143742 29376 42868 130167
internal_value=0 -0.00390575 -0.000914464 -0.00395034 -0.00796262 -0.0172457 0.00170826 0.0167734 0.012499 -0.000985141 -0.02554 -0.0264357 -0.0060731 -0.032521 0.0123005 -0.00386919 -0.00358618 0.00864316 0.0188607 -0.0329694 -0.0395463 0.000804311 -0.00049721 -0.0464939 0.021845 -0.0106114 -0.00136965 -0.00563273 -0.00770707 -0.040733
internal_weight=0 441917 390121 338200 271234 138392 132842 102174 85664.5 120867 85423.3 51796.1 90256.4 41793.9 66966.8 52968.4 83265.4 58674.8 51920.4 55630.1 37616.5 38051 72519.3 18634.6 47613.5 19005.7 71681.4 17894 42488.4 37228.4
internal_count=2400000 2063566 1758028 1598569 1324076 798347 525729 336434 293231 494952 554496 305538 393308 263594 274493 243851 353180 244895 159459 377245 268025 143204 299880 130033 150027 78236 298176 86048 186610 267210
is_linear=0
shrinkage=0.1


Tree=22
num_leaves=31
num_cat=0
split_feature=206 164 23 2 94 193 2 195 5 207 350 192 155 1 200 96 231 1 192 162 23 162 84 23 164 2 135 119 1 327
split_gain=3315.55 2969.02 2375.44 1901.05 1806.37 1471.75 1367.04 1349.85 1181.58 1292.55 1224.59 1035 870.174 856.75 780.404 715.997 650.118 631.27 526.364 510.389 455.274 541.006 434.02 433.728 431.966 419.802 401.633 379.179 375.442 362.214
threshold=1.0000000180025095e-35 1.0000000180025095e-35 1.0000000180025095e-35 0.6198686371100165 1.5000000000000002 1.0000000180025095e-35 0.70185185185185195 1.0000000180025095e-35 0.56696428571428581 1.0000000180025095e-35 1.0000000180025095e-35 1.0000000180025095e-35 1.0000000180025095e-35 0.94804318488529027 1.0000000180025095e-35 1.0000000180025095e-35 1.5000000000000002 0.82480818414322254 1.0000000180025095e-35 1.0000000180025095e-35 1.5000000000000002 1.0000000180025095e-35 1.0000000180025095e-35 2.5000000000000004 1.5000000000000002 0.92724867724867732 1.0000000180025095e-35 1.0000000180025095e-35 0.58114035087719318 1.5000000000000002
decision_type=2 2 2 2 2 2 2 2 2 2 2 2 2 2 2 2 2 2 2 2 2 2 2 2 2 2 2 2 2 2
left_child=1 2 3 26 6 7 -3 8 -5 10 27 12 14 -8 19 20 22 -18 -15 28 21 -4 -14 25 -6 -17 -1 -10 -12 -11
right_child=-2 4 15 5 24 -7 13 -9 9 29 11 -13 16 18 -16 23 17 -19 -20 -21 -22 -23 -24 -25 -26 -27 -28 -29 -30 -31
leaf_value=0.0093213156702635497 0.060899108624583531 -0.00099403069949426841 0.010604167996356079 0.041273061163642905 0.018759747827251906 -0.036417716130952751 -0.015016742979024209 0.020405331294738399 0.0088042189763908821 0.019904355086446106 -0.002290512798293886 -0.00074357178921021817 0.0048304598511546707 -0.045247207173135601 0.0053443547814870894 0.011687563188618863 0.0051642985568913953 -0.022957611842357634 -0.022098302999469466 -0.022146308010088399 0.0400006617068627 0.031405865248151359 0.073676078886438845 0.039806556521104937 -0.0060222883600191991 -0.0092534291008531493 0.028573817186736419 -0.030744602108880997 -0.050706843006717232 -0.0022662890091348291
leaf_weight=55951.078828781843 8788.7049417495728 26204.570174157619 32963.678642697632 5068.1756120994687 16053.983036033809 14738.982497081161 31239.149371132255 20878.390645675361 30610.586399555206 18507.105350330472 1738.481669574976 32762.165289781988 3705.4630993083119 27029.90602067858 4816.0629674345255 22625.747336164117 10388.925529815257 34457.092246264219 15429.66092595458 13382.680872060359 12082.412671707571 20142.569996081293 1216.2783585786819 3450.8480188027024 12517.918229609728 16594.061904743314 13438.115103706717 2632.7533495947719 20344.108516395092 12244.358314245939
leaf_count=189998 20436 105101 114869 11617 57981 87537 167206 65859 126048 69413 7824 134552 14877 197984 24768 82130 47163 222215 79902 81299 32136 64294 3070 8902 54065 71570 39757 18323 139567 59537
internal_value=0 -0.00102581 0.00317832 -0.00143933 -0.0142703 -0.00585879 -0.0206115 -0.00374175 -0.00636926 -0.00766183 -0.0113544 -0.0159632 -0.0215005 -0.0275867 -0.0324271 0.0158883 -0.0126566 -0.016443 -0.036835 -0.0375563 0.0224802 0.018494 0.0218438 0.00581791 0.00790224 0.00282734 0.0130498 0.00567209 -0.0468952 0.0110766
internal_weight=0 533215 404740 296881 128475 227492 99903.3 212753 191874 186806 156055 122811 90049.1 73698.7 40281.3 107859 49767.8 44846 42459.6 35465.3 65188.7 53106.2 4921.74 42670.7 28571.9 39219.8 69389.2 33243.3 22082.6 30751.5
internal_count=2400000 2379564 1717325 1343424 662239 1113669 550193 1026132 960273 948656 819706 675335 540783 445092 253458 373901 287325 269378 277886 228690 211299 179163 17947 162602 112046 153700 229755 144371 147391 128950
is_linear=0
shrinkage=0.1


Tree=23
num_leaves=31
num_cat=0
split_feature=159 6 3 236 160 311 347 144 349 21 5 162 149 193 342 247 119 258 327 244 73 94 337 238 27 148 135 350 105 347
split_gain=2999.72 2795.43 2428.92 1746.14 1282.74 1791.41 1166.51 1103.49 1027.79 846.64 835.371 694.84 644.102 620.336 602.48 599.749 585.656 514.976 493.878 473.357 470.573 466.837 456.731 587.177 454.593 451.662 444.579 412.07 474.29 394.091
threshold=1.0000000180025095e-35 0.64400921658986188 0.95346320346320357 1.0000000180025095e-35 1.0000000180025095e-35 1.0000000180025095e-35 1.0000000180025095e-35 1.5000000000000002 1.0000000180025095e-35 1.0000000180025095e-35 0.65108695652173931 1.0000000180025095e-35 1.0000000180025095e-35 1.0000000180025095e-35 15.500000000000002 3.5000000000000004 1.0000000180025095e-35 4.5000000000000009 2.5000000000000004 1.0000000180025095e-35 1.0000000180025095e-35 1.5000000000000002 1.0000000180025095e-35 1.0000000180025095e-35 1.0000000180025095e-35 1.0000000180025095e-35 1.0000000180025095e-35 1.0000000180025095e-35 1.0000000180025095e-35 1.5000000000000002
decision_type=2 2 2 2 2 2 2 2 2 2 2 2 2 2 2 2 2 2 2 2 2 2 2 2 2 2 2 2 2 2
left_child=1 3 15 4 5 22 7 8 9 12 -7 21 26 25 -2 -3 -8 24 -5 -11 -18 29 23 -1 -17 -6 27 -4 -29 -12
right_child=14 2 6 18 13 10 16 -9 -10 19 11 -13 -14 -15 -16 17 20 -19 -20 -21 -22 -23 -24 -25 -26 -27 -28 28 -30 -31
